{"learner":{"attributes":{"scikit_learn":"{\"_estimator_type\": \"regressor\"}"},"feature_names":[],"feature_types":[],"gradient_booster":{"model":{"cats":{"enc":[],"feature_segments":[],"sorted_idx":[]},"gbtree_model_param":{"num_parallel_tree":"1","num_trees":"200"},"iteration_indptr":[0,1,2,3,4,5,6,7,8,9,10,11,12,13,14,15,16,17,18,19,20,21,22,23,24,25,26,27,28,29,30,31,32,33,34,35,36,37,38,39,40,41,42,43,44,45,46,47,48,49,50,51,52,53,54,55,56,57,58,59,60,61,62,63,64,65,66,67,68,69,70,71,72,73,74,75,76,77,78,79,80,81,82,83,84,85,86,87,88,89,90,91,92,93,94,95,96,97,98,99,100,101,102,103,104,105,106,107,108,109,110,111,112,113,114,115,116,117,118,119,120,121,122,123,124,125,126,127,128,129,130,131,132,133,134,135,136,137,138,139,140,141,142,143,144,145,146,147,148,149,150,151,152,153,154,155,156,157,158,159,160,161,162,163,164,165,166,167,168,169,170,171,172,173,174,175,176,177,178,179,180,181,182,183,184,185,186,187,188,189,190,191,192,193,194,195,196,197,198,199,200],"tree_info":[0,0,0,0,0,0,0,0,0,0,0,0,0,0,0,0,0,0,0,0,0,0,0,0,0,0,0,0,0,0,0,0,0,0,0,0,0,0,0,0,0,0,0,0,0,0,0,0,0,0,0,0,0,0,0,0,0,0,0,0,0,0,0,0,0,0,0,0,0,0,0,0,0,0,0,0,0,0,0,0,0,0,0,0,0,0,0,0,0,0,0,0,0,0,0,0,0,0,0,0,0,0,0,0,0,0,0,0,0,0,0,0,0,0,0,0,0,0,0,0,0,0,0,0,0,0,0,0,0,0,0,0,0,0,0,0,0,0,0,0,0,0,0,0,0,0,0,0,0,0,0,0,0,0,0,0,0,0,0,0,0,0,0,0,0,0,0,0,0,0,0,0,0,0,0,0,0,0,0,0,0,0,0,0,0,0,0,0,0,0,0,0,0,0,0,0,0,0,0,0],"trees":[{"base_weights":[-5.7031078E-9,-1.6114977E-1,2.0695685E-1,-2.0616275E-1,-6.252558E-2,1.6248173E-1,3.4598848E-1,-2.1749704E-1,-1.643055E-1,-1.14035614E-1,1.7961463E-2,8.567049E-2,2.016423E-1,2.7601185E-1,4.1956362E-1,-1.0879117E-2,-5.3325295E-4,-1.7481264E-1,-1.1487188E-1,-1.3533299E-1,-8.427181E-2,-2.5585951E-2,4.6797805E-2,1.6120179E-2,1.2789518E-1,1.6057177E-1,2.3554873E-1,3.298199E-1,2.0864259E-1,4.7101954E-1,3.358957E-1,-8.946491E-3,-1.5656677E-1,-6.828561E-3,-9.4135225E-2,-1.4269291E-1,-9.946318E-2,-1.0158371E-1,-6.2109426E-2,-4.340203E-2,-2.006834E-3,2.3079516E-2,7.908088E-2,-3.3110224E-2,6.346269E-2,9.670975E-2,1.6064578E-1,1.7706178E-1,1.3248432E-1,2.1396756E-1,3.1218207E-1,3.3784726E-1,1.5650372E-1,6.054455E-2,2.2904326E-1,2.41402E-1,4.8103878E-1,3.378106E-1,1.1686251E-3,-8.8536594E-4,-7.887727E-3,-3.254965E-3,-5.286027E-3,-7.2510215E-3,-5.366948E-3,-5.6503033E-3,-3.6331934E-3,-6.5963506E-3,-3.996571E-3,-4.311835E-3,-2.165409E-3,-3.2400116E-3,-1.3748787E-3,-7.8846375E-4,1.8535185E-3,6.563873E-3,9.015148E-4,7.8080705E-4,4.3208045E-3,-2.301491E-3,1.4489475E-3,1.0698475E-3,4.052369E-3,4.893221E-3,-5.4628304E-3,7.6651457E-3,1.2227827E-2,8.351207E-3,1.133226E-2,4.2468044E-3,7.176665E-3,1.1136009E-2,7.1408874E-3,1.6776284E-2,1.1717548E-2,1.1217055E-2,1.747216E-2,8.547187E-3,2.8101227E-3,-1.0644725E-3,3.8987913E-3,1.1855694E-2,7.953956E-3,3.514348E-3,1.3429816E-2,2.2129312E-2,2.6653547E-2,1.5743E-2,1.9585295E-2],"categories":[],"categories_nodes":[],"categories_segments":[],"categories_sizes":[],"default_left":[0,0,0,0,0,0,0,0,0,0,0,0,0,0,0,0,0,0,0,0,0,0,0,0,0,0,0,0,0,0,0,0,0,0,0,0,0,0,0,0,0,0,0,0,0,0,0,0,0,0,0,0,0,0,0,0,0,0,0,0,0,0,0,0,0,0,0,0,0,0,0,0,0,0,0,0,0,0,0,0,0,0,0,0,0,0,0,0,0,0,0,0,0,0,0,0,0,0,0,0,0,0,0,0,0,0,0,0,0],"id":0,"left_children":[1,3,5,7,9,11,13,15,17,19,21,23,25,27,29,-1,-1,31,33,35,37,39,41,43,45,47,49,51,53,55,57,-1,59,-1,61,63,65,67,69,71,73,75,77,79,81,83,85,87,89,91,93,95,97,99,101,103,105,107,-1,-1,-1,-1,-1,-1,-1,-1,-1,-1,-1,-1,-1,-1,-1,-1,-1,-1,-1,-1,-1,-1,-1,-1,-1,-1,-1,-1,-1,-1,-1,-1,-1,-1,-1,-1,-1,-1,-1,-1,-1,-1,-1,-1,-1,-1,-1,-1,-1,-1,-1],"loss_changes":[2.5300104E2,1.892102E1,2.047902E1,1.3533859E0,5.5492506E0,7.556801E0,4.0236206E0,3.8261414E-2,3.0610657E-1,5.058489E-1,6.579536E-1,2.500041E0,2.2835693E0,1.4355602E0,1.5208206E0,0E0,0E0,1.074791E-2,3.799069E-2,1.1094284E-1,1.2529087E-1,8.771117E-2,2.3937017E-1,7.5491434E-1,5.2577496E-1,3.2715607E-1,1.439846E0,2.657299E-1,5.5111694E-1,4.3371964E-1,8.306885E-2,0E0,1.4194727E-2,0E0,1.3637483E-2,1.6608238E-2,2.2275507E-2,1.14942074E-1,6.566954E-2,3.8717046E-2,4.952417E-2,9.760874E-2,6.056559E-2,1.2887844E-1,1.2031847E-1,7.5855255E-2,1.20859146E-1,1.9805527E-1,1.3701105E-1,4.1283417E-1,2.8110886E-1,2.0853806E-1,7.7727735E-3,3.589537E-2,5.4883003E-2,3.6961436E-2,2.2024155E-1,6.344414E-2,0E0,0E0,0E0,0E0,0E0,0E0,0E0,0E0,0E0,0E0,0E0,0E0,0E0,0E0,0E0,0E0,0E0,0E0,0E0,0E0,0E0,0E0,0E0,0E0,0E0,0E0,0E0,0E0,0E0,0E0,0E0,0E0,0E0,0E0,0E0,0E0,0E0,0E0,0E0,0E0,0E0,0E0,0E0,0E0,0E0,0E0,0E0,0E0,0E0,0E0,0E0],"parents":[2147483647,0,0,1,1,2,2,3,3,4,4,5,5,6,6,7,7,8,8,9,9,10,10,11,11,12,12,13,13,14,14,17,17,18,18,19,19,20,20,21,21,22,22,23,23,24,24,25,25,26,26,27,27,28,28,29,29,30,30,32,32,34,34,35,35,36,36,37,37,38,38,39,39,40,40,41,41,42,42,43,43,44,44,45,45,46,46,47,47,48,48,49,49,50,50,51,51,52,52,53,53,54,54,55,55,56,56,57,57],"right_children":[2,4,6,8,10,12,14,16,18,20,22,24,26,28,30,-1,-1,32,34,36,38,40,42,44,46,48,50,52,54,56,58,-1,60,-1,62,64,66,68,70,72,74,76,78,80,82,84,86,88,90,92,94,96,98,100,102,104,106,108,-1,-1,-1,-1,-1,-1,-1,-1,-1,-1,-1,-1,-1,-1,-1,-1,-1,-1,-1,-1,-1,-1,-1,-1,-1,-1,-1,-1,-1,-1,-1,-1,-1,-1,-1,-1,-1,-1,-1,-1,-1,-1,-1,-1,-1,-1,-1,-1,-1,-1,-1],"split_conditions":[2.2202155E-1,7.7285886E-2,5.046948E-1,2.1043608E-2,3.9130434E-1,3.42723E-1,8.695652E-1,6.3615024E-1,3.043478E-1,9.6244134E-2,1.6431925E-1,3.9130434E-1,3.8732395E-1,7.746479E-2,5E-1,-1.0879117E-2,-5.3325295E-4,2.2973576E-1,9.859155E-2,1.713615E-1,3.043478E-1,1.2910798E-1,3.1220657E-1,1.7840375E-1,3.1924108E-1,8.333333E-1,9.5652175E-1,1E0,1.2910798E-1,4.5319405E-1,5.023474E-1,-8.946491E-3,1.2910798E-1,-6.828561E-3,3.3333334E-1,1.6666667E-1,6.666667E-1,1.3484074E-1,3.3860394E-1,2.535211E-1,4.6841225E-1,2.550199E-2,2.0984896E-1,3.9201877E-1,2.667873E-1,4.173756E-1,9.5652175E-1,4.8356807E-1,5.217391E-1,1E0,8.333333E-1,4.0610328E-1,5.2347416E-1,5.56338E-1,8.2608694E-1,1.520708E-1,7.0187795E-1,5.606789E-1,1.1686251E-3,-8.8536594E-4,-7.887727E-3,-3.254965E-3,-5.286027E-3,-7.2510215E-3,-5.366948E-3,-5.6503033E-3,-3.6331934E-3,-6.5963506E-3,-3.996571E-3,-4.311835E-3,-2.165409E-3,-3.2400116E-3,-1.3748787E-3,-7.8846375E-4,1.8535185E-3,6.563873E-3,9.015148E-4,7.8080705E-4,4.3208045E-3,-2.301491E-3,1.4489475E-3,1.0698475E-3,4.052369E-3,4.893221E-3,-5.4628304E-3,7.6651457E-3,1.2227827E-2,8.351207E-3,1.133226E-2,4.2468044E-3,7.176665E-3,1.1136009E-2,7.1408874E-3,1.6776284E-2,1.1717548E-2,1.1217055E-2,1.747216E-2,8.547187E-3,2.8101227E-3,-1.0644725E-3,3.8987913E-3,1.1855694E-2,7.953956E-3,3.514348E-3,1.3429816E-2,2.2129312E-2,2.6653547E-2,1.5743E-2,1.9585295E-2],"split_indices":[116,116,115,116,7,0,22,95,2,0,115,2,115,40,3,0,0,16,0,115,2,115,5,0,116,8,32,2,5,116,80,0,25,0,83,5,8,116,66,5,36,31,1,115,116,1,7,0,12,53,38,95,110,90,17,86,0,116,0,0,0,0,0,0,0,0,0,0,0,0,0,0,0,0,0,0,0,0,0,0,0,0,0,0,0,0,0,0,0,0,0,0,0,0,0,0,0,0,0,0,0,0,0,0,0,0,0,0,0],"split_type":[0,0,0,0,0,0,0,0,0,0,0,0,0,0,0,0,0,0,0,0,0,0,0,0,0,0,0,0,0,0,0,0,0,0,0,0,0,0,0,0,0,0,0,0,0,0,0,0,0,0,0,0,0,0,0,0,0,0,0,0,0,0,0,0,0,0,0,0,0,0,0,0,0,0,0,0,0,0,0,0,0,0,0,0,0,0,0,0,0,0,0,0,0,0,0,0,0,0,0,0,0,0,0,0,0,0,0,0,0],"sum_hessian":[7.584E3,4.264E3,3.32E3,2.927E3,1.337E3,2.517E3,8.03E2,2.3E3,6.27E2,8.15E2,5.22E2,8.51E2,1.666E3,4.14E2,3.89E2,2.299E3,1E0,5.15E2,1.12E2,4.73E2,3.42E2,2.08E2,3.14E2,3.22E2,5.29E2,7.56E2,9.1E2,2.28E2,1.86E2,2.38E2,1.51E2,4.13E2,1.02E2,5.2E1,6E1,3.9E2,8.3E1,1.9E2,1.52E2,1.18E2,9E1,1.82E2,1.32E2,1.58E2,1.64E2,2.73E2,2.56E2,4.73E2,2.83E2,7.13E2,1.97E2,2.17E2,1.1E1,2.3E1,1.63E2,1.1E1,2.27E2,1.5E2,1E0,1E0,1.01E2,1.9E1,4.1E1,3.63E2,2.7E1,5.3E1,3E1,7.7E1,1.13E2,6.5E1,8.7E1,4.9E1,6.9E1,6.7E1,2.3E1,7E0,1.75E2,1.4E1,1.18E2,1.31E2,2.7E1,4.9E1,1.15E2,2.72E2,1E0,2.38E2,1.8E1,3.97E2,7.6E1,5.5E1,2.28E2,6.33E2,8E1,1.49E2,4.8E1,2.2E1,1.95E2,9E0,2E0,4E0,1.9E1,1.44E2,1.9E1,2E0,9E0,1.36E2,9.1E1,1.1E2,4E1],"tree_param":{"num_deleted":"0","num_feature":"120","num_nodes":"109","size_leaf_vector":"1"}},{"base_weights":[2.5297117E-5,-1.5310973E-1,1.9668922E-1,-1.9586982E-1,-5.9421685E-2,1.5439793E-1,3.2889417E-1,-2.0710929E-1,-1.5768197E-1,-1.083816E-1,1.7080631E-2,8.141466E-2,1.9160691E-1,3.9601025E-1,2.587442E-1,-1.0359591E-2,-5.1992165E-4,-1.6736229E-1,-1.10007316E-1,-1.2861253E-1,-8.010799E-2,-2.4323635E-2,4.449781E-2,1.5327387E-2,1.2153687E-1,1.5467802E-1,2.2574952E-1,2.7570796E-1,4.382592E-1,1.6516979E-1,2.9022166E-1,-8.577868E-3,-1.5019134E-1,-6.5153316E-3,-8.956848E-2,-1.3559052E-1,-9.460054E-2,-1.03101216E-1,-6.4872615E-2,-4.1270703E-2,-1.8947892E-3,2.4572704E-2,7.989868E-2,-2.5330303E-2,6.733001E-2,9.187219E-2,1.526909E-1,1.3096114E-1,1.7276558E-1,2.0511915E-1,2.9884002E-1,1.7704606E-2,2.4001564E-1,3.9359987E-1,4.7724643E-1,6.03097E-2,1.9843203E-1,3.2762957E-1,2.6269838E-1,-7.5422036E-3,-1.8618815E-3,-3.100354E-3,-5.0280187E-3,-7.0931027E-3,-6.117904E-3,-5.37302E-3,-3.457394E-3,-3.4105417E-3,-6.1093736E-3,-1.589459E-3,-3.7269273E-3,-2.9517168E-3,-1.1993729E-3,-1.1661594E-3,1.0762354E-3,6.4868913E-3,9.225759E-4,3.5140272E-3,6.6908053E-3,-2.2525638E-3,1.0513164E-3,2.5079742E-3,5.0484585E-3,4.649456E-3,-5.32626E-3,6.9481856E-3,9.637809E-3,6.122541E-3,9.903039E-3,8.182089E-3,1.0900884E-2,1.0674177E-2,6.703795E-3,1.6060058E-2,1.1246124E-2,8.466693E-3,1.3237983E-2,1.6431129E-2,2.1200953E-2,2.14748E-2,2.6958844E-2,-1.0218933E-3,3.7960038E-3,8.580768E-3,1.1634428E-2,1.4811042E-2,1.81805E-2,1.317205E-2,3.3370212E-3],"categories":[],"categories_nodes":[],"categories_segments":[],"categories_sizes":[],"default_left":[0,0,0,0,0,0,0,0,0,0,0,0,0,0,0,0,0,0,0,0,0,0,0,0,0,0,0,0,0,0,0,0,0,0,0,0,0,0,0,0,0,0,0,0,0,0,0,0,0,0,0,0,0,0,0,0,0,0,0,0,0,0,0,0,0,0,0,0,0,0,0,0,0,0,0,0,0,0,0,0,0,0,0,0,0,0,0,0,0,0,0,0,0,0,0,0,0,0,0,0,0,0,0,0,0,0,0,0,0],"id":1,"left_children":[1,3,5,7,9,11,13,15,17,19,21,23,25,27,29,-1,-1,31,33,35,37,39,41,43,45,47,49,51,53,55,57,-1,59,-1,61,63,65,67,69,71,73,75,77,79,81,83,85,87,89,91,93,-1,95,97,99,101,103,105,107,-1,-1,-1,-1,-1,-1,-1,-1,-1,-1,-1,-1,-1,-1,-1,-1,-1,-1,-1,-1,-1,-1,-1,-1,-1,-1,-1,-1,-1,-1,-1,-1,-1,-1,-1,-1,-1,-1,-1,-1,-1,-1,-1,-1,-1,-1,-1,-1,-1,-1],"loss_changes":[2.2846101E2,1.7074417E1,1.8517319E1,1.2240753E0,5.0133924E0,6.822365E0,3.6829224E0,3.450775E-2,2.908001E-1,4.5645142E-1,5.9478575E-1,2.2572727E0,2.0669136E0,1.9579697E0,1.1184769E0,0E0,0E0,1.4211655E-2,3.6456347E-2,9.966993E-2,1.1346817E-1,7.936336E-2,2.2022694E-1,6.8462646E-1,4.7578526E-1,3.2227516E-1,1.2415161E0,2.1996307E-1,3.3623505E-1,3.4379673E-1,2.176609E-1,0E0,3.0088425E-3,0E0,1.2244612E-2,1.5090466E-2,2.0063996E-2,8.156562E-2,6.446493E-2,3.5118476E-2,4.6169672E-2,1.282844E-1,4.919547E-2,1.673313E-1,7.69549E-2,7.062316E-2,1.1455917E-1,1.7675257E-1,1.5135384E-1,3.736725E-1,2.3849487E-1,0E0,9.1585636E-2,1.4923668E-1,2.2974777E-1,3.4324624E-2,3.0802727E-2,2.903366E-2,7.884026E-3,0E0,0E0,0E0,0E0,0E0,0E0,0E0,0E0,0E0,0E0,0E0,0E0,0E0,0E0,0E0,0E0,0E0,0E0,0E0,0E0,0E0,0E0,0E0,0E0,0E0,0E0,0E0,0E0,0E0,0E0,0E0,0E0,0E0,0E0,0E0,0E0,0E0,0E0,0E0,0E0,0E0,0E0,0E0,0E0,0E0,0E0,0E0,0E0,0E0,0E0],"parents":[2147483647,0,0,1,1,2,2,3,3,4,4,5,5,6,6,7,7,8,8,9,9,10,10,11,11,12,12,13,13,14,14,17,17,18,18,19,19,20,20,21,21,22,22,23,23,24,24,25,25,26,26,27,27,28,28,29,29,30,30,32,32,34,34,35,35,36,36,37,37,38,38,39,39,40,40,41,41,42,42,43,43,44,44,45,45,46,46,47,47,48,48,49,49,50,50,52,52,53,53,54,54,55,55,56,56,57,57,58,58],"right_children":[2,4,6,8,10,12,14,16,18,20,22,24,26,28,30,-1,-1,32,34,36,38,40,42,44,46,48,50,52,54,56,58,-1,60,-1,62,64,66,68,70,72,74,76,78,80,82,84,86,88,90,92,94,-1,96,98,100,102,104,106,108,-1,-1,-1,-1,-1,-1,-1,-1,-1,-1,-1,-1,-1,-1,-1,-1,-1,-1,-1,-1,-1,-1,-1,-1,-1,-1,-1,-1,-1,-1,-1,-1,-1,-1,-1,-1,-1,-1,-1,-1,-1,-1,-1,-1,-1,-1,-1,-1,-1,-1],"split_conditions":[2.2202155E-1,7.7285886E-2,5.046948E-1,1.3359897E-2,3.9130434E-1,3.42723E-1,8.450704E-2,6.3615024E-1,3.043478E-1,9.6244134E-2,1.6431925E-1,3.9130434E-1,3.9201877E-1,5.0116116E-1,1.7391305E-1,-1.0359591E-2,-5.1992165E-4,2.0422535E-1,9.859155E-2,1.713615E-1,1.3035294E-1,1.2910798E-1,3.0092067E-1,1.9483568E-1,3.1924108E-1,3.4037557E-1,9.5652175E-1,9.5652175E-1,9.5652175E-1,1.3145539E-1,9.173506E-2,-8.577868E-3,6.792939E-1,-6.5153316E-3,3.3333334E-1,6.807512E-2,6.666667E-1,1.056338E-1,1.0881154E-1,2.6760563E-1,3.537045E-1,2.347418E-2,3.0266348E-1,3.6150235E-1,3.465164E-1,4.173756E-1,7.3913044E-1,4.9061033E-1,9.130435E-1,1E0,8.333333E-1,1.7704606E-2,4.513924E-1,6.4319247E-1,6.713615E-1,5.56338E-1,5.416275E-1,4.5588782E-1,6.792939E-1,-7.5422036E-3,-1.8618815E-3,-3.100354E-3,-5.0280187E-3,-7.0931027E-3,-6.117904E-3,-5.37302E-3,-3.457394E-3,-3.4105417E-3,-6.1093736E-3,-1.589459E-3,-3.7269273E-3,-2.9517168E-3,-1.1993729E-3,-1.1661594E-3,1.0762354E-3,6.4868913E-3,9.225759E-4,3.5140272E-3,6.6908053E-3,-2.2525638E-3,1.0513164E-3,2.5079742E-3,5.0484585E-3,4.649456E-3,-5.32626E-3,6.9481856E-3,9.637809E-3,6.122541E-3,9.903039E-3,8.182089E-3,1.0900884E-2,1.0674177E-2,6.703795E-3,1.6060058E-2,1.1246124E-2,8.466693E-3,1.3237983E-2,1.6431129E-2,2.1200953E-2,2.14748E-2,2.6958844E-2,-1.0218933E-3,3.7960038E-3,8.580768E-3,1.1634428E-2,1.4811042E-2,1.81805E-2,1.317205E-2,3.3370212E-3],"split_indices":[116,116,115,116,7,0,50,90,2,0,115,2,115,116,7,0,0,15,0,115,116,115,6,0,116,115,32,17,27,5,41,0,36,0,83,0,8,95,96,5,66,30,106,115,116,1,7,0,27,53,38,0,111,110,115,90,96,1,116,0,0,0,0,0,0,0,0,0,0,0,0,0,0,0,0,0,0,0,0,0,0,0,0,0,0,0,0,0,0,0,0,0,0,0,0,0,0,0,0,0,0,0,0,0,0,0,0,0,0],"split_type":[0,0,0,0,0,0,0,0,0,0,0,0,0,0,0,0,0,0,0,0,0,0,0,0,0,0,0,0,0,0,0,0,0,0,0,0,0,0,0,0,0,0,0,0,0,0,0,0,0,0,0,0,0,0,0,0,0,0,0,0,0,0,0,0,0,0,0,0,0,0,0,0,0,0,0,0,0,0,0,0,0,0,0,0,0,0,0,0,0,0,0,0,0,0,0,0,0,0,0,0,0,0,0,0,0,0,0,0,0],"sum_hessian":[7.584E3,4.264E3,3.32E3,2.927E3,1.337E3,2.517E3,8.03E2,2.258E3,6.69E2,8.15E2,5.22E2,8.51E2,1.666E3,4.08E2,3.95E2,2.257E3,1E0,5.54E2,1.15E2,4.73E2,3.42E2,2.08E2,3.14E2,3.22E2,5.29E2,8.03E2,8.63E2,1.08E2,3E2,1.01E2,2.94E2,4.38E2,1.16E2,5.5E1,6E1,3.9E2,8.3E1,1.34E2,2.08E2,1.18E2,9E1,2.02E2,1.12E2,1.81E2,1.41E2,2.73E2,2.56E2,3.51E2,4.52E2,6.76E2,1.87E2,3.1E1,7.7E1,1.45E2,1.55E2,2.5E1,7.6E1,1.2E2,1.74E2,1.15E2,1E0,1.9E1,4.1E1,2.58E2,1.32E2,5.3E1,3E1,4.9E1,8.5E1,4.8E1,1.6E2,5.7E1,6.1E1,4.7E1,4.3E1,1E1,1.92E2,9.7E1,1.5E1,1.27E2,5.4E1,9.5E1,4.6E1,2.72E2,1E0,1.94E2,6.2E1,3.14E2,3.7E1,3.8E2,7.2E1,6.03E2,7.3E1,1.41E2,4.6E1,2.2E1,5.5E1,5E1,9.5E1,9.2E1,6.3E1,4E0,2.1E1,4.6E1,3E1,6.9E1,5.1E1,1.73E2,1E0],"tree_param":{"num_deleted":"0","num_feature":"120","num_nodes":"109","size_leaf_vector":"1"}},{"base_weights":[5.475135E-5,-1.4546996E-1,1.869451E-1,-1.8609118E-1,-5.6468163E-2,1.4671856E-1,3.1269568E-1,-1.9675866E-1,-1.4984657E-1,-1.0300771E-1,1.6252171E-2,4.9816016E-2,1.7209712E-1,3.7651652E-1,2.4599007E-1,-9.841841E-3,-5.069237E-4,-1.5902658E-1,-1.0463318E-1,-1.2222841E-1,-7.614584E-2,-2.3127742E-2,4.232884E-2,4.895142E-3,1.0503831E-1,1.3290904E-1,2.0667776E-1,2.622841E-1,4.166322E-1,1.571367E-1,2.758784E-1,-8.138726E-3,-1.4141364E-1,-1.14660814E-1,-6.902274E-2,-1.2884478E-1,-8.997564E-2,-9.208364E-2,-5.5751942E-2,-5.048122E-2,-1.0150046E-2,2.060521E-2,7.1900986E-2,-3.3461362E-2,4.401675E-2,7.677497E-2,1.5883884E-1,1.0219785E-1,1.4805233E-1,1.8819273E-1,2.7955583E-1,1.6847039E-2,2.2829312E-1,3.7417763E-1,4.5369458E-1,5.740092E-2,1.8877298E-1,3.2426864E-1,2.560472E-1,-6.4878503E-4,-7.1261935E-3,-5.8211437E-3,-1.2670461E-3,-3.686099E-3,-2.644184E-4,-6.549985E-3,-4.8114723E-3,-5.1093446E-3,-3.2901005E-3,-5.7411348E-3,-3.3948289E-3,-3.9137453E-3,-1.9113086E-3,-3.0265527E-3,-2.0397632E-4,-1.3565046E-3,5.6168035E-4,5.992902E-3,7.9883216E-4,6.581251E-4,3.935039E-3,-2.3473138E-3,8.2335545E-4,1.7181184E-4,3.0629789E-3,4.3933215E-3,1.7195959E-3,4.576902E-3,8.845068E-3,5.4325126E-3,3.5978113E-3,8.12732E-3,6.1453828E-3,9.798108E-3,6.4762156E-3,1.51218E-2,1.0520877E-2,8.963827E-3,1.31047545E-2,1.5625682E-2,2.0151949E-2,2.0412603E-2,2.5631964E-2,-9.810177E-4,3.614831E-3,9.765977E-3,4.7702263E-3,3.5695657E-3,1.632546E-2,1.1913502E-2,1.4574726E-2],"categories":[],"categories_nodes":[],"categories_segments":[],"categories_sizes":[],"default_left":[0,0,0,0,0,0,0,0,0,0,0,0,0,0,0,0,0,0,0,0,0,0,0,0,0,0,0,0,0,0,0,0,0,0,0,0,0,0,0,0,0,0,0,0,0,0,0,0,0,0,0,0,0,0,0,0,0,0,0,0,0,0,0,0,0,0,0,0,0,0,0,0,0,0,0,0,0,0,0,0,0,0,0,0,0,0,0,0,0,0,0,0,0,0,0,0,0,0,0,0,0,0,0,0,0,0,0,0,0,0,0],"id":2,"left_children":[1,3,5,7,9,11,13,15,17,19,21,23,25,27,29,-1,-1,31,33,35,37,39,41,43,45,47,49,51,53,55,57,-1,59,61,63,65,67,69,71,73,75,77,79,81,83,85,87,89,91,93,95,-1,97,99,101,103,105,107,109,-1,-1,-1,-1,-1,-1,-1,-1,-1,-1,-1,-1,-1,-1,-1,-1,-1,-1,-1,-1,-1,-1,-1,-1,-1,-1,-1,-1,-1,-1,-1,-1,-1,-1,-1,-1,-1,-1,-1,-1,-1,-1,-1,-1,-1,-1,-1,-1,-1,-1,-1,-1],"loss_changes":[2.063177E2,1.5409012E1,1.6753418E1,1.1025925E0,4.5299625E0,6.183815E0,3.330185E0,3.0960083E-2,2.6145077E-1,4.1199684E-1,5.38046E-1,1.2993377E0,2.676052E0,1.7649689E0,1.008297E0,0E0,0E0,1.3617516E-2,3.3508062E-2,8.955717E-2,1.06352806E-1,7.367949E-2,2.0087898E-1,4.366376E-1,3.4514213E-1,4.2110252E-1,1.3726768E0,1.9968319E-1,3.0384827E-1,3.1100154E-1,2.000637E-1,0E0,1.3123035E-2,1.1057258E-2,7.996216E-3,1.4874935E-2,1.807189E-2,9.725213E-2,5.7401896E-2,3.0997127E-2,5.222741E-2,8.2154974E-2,5.208558E-2,9.974539E-2,1.0054961E-1,7.031214E-2,8.1056595E-2,5.325818E-2,2.0816708E-1,3.606949E-1,2.717247E-1,0E0,8.2247734E-2,1.3388252E-1,2.085762E-1,3.1247921E-2,2.8431416E-2,2.3151398E-2,6.540012E-2,0E0,0E0,0E0,0E0,0E0,0E0,0E0,0E0,0E0,0E0,0E0,0E0,0E0,0E0,0E0,0E0,0E0,0E0,0E0,0E0,0E0,0E0,0E0,0E0,0E0,0E0,0E0,0E0,0E0,0E0,0E0,0E0,0E0,0E0,0E0,0E0,0E0,0E0,0E0,0E0,0E0,0E0,0E0,0E0,0E0,0E0,0E0,0E0,0E0,0E0,0E0,0E0],"parents":[2147483647,0,0,1,1,2,2,3,3,4,4,5,5,6,6,7,7,8,8,9,9,10,10,11,11,12,12,13,13,14,14,17,17,18,18,19,19,20,20,21,21,22,22,23,23,24,24,25,25,26,26,27,27,28,28,29,29,30,30,32,32,33,33,34,34,35,35,36,36,37,37,38,38,39,39,40,40,41,41,42,42,43,43,44,44,45,45,46,46,47,47,48,48,49,49,50,50,52,52,53,53,54,54,55,55,56,56,57,57,58,58],"right_children":[2,4,6,8,10,12,14,16,18,20,22,24,26,28,30,-1,-1,32,34,36,38,40,42,44,46,48,50,52,54,56,58,-1,60,62,64,66,68,70,72,74,76,78,80,82,84,86,88,90,92,94,96,-1,98,100,102,104,106,108,110,-1,-1,-1,-1,-1,-1,-1,-1,-1,-1,-1,-1,-1,-1,-1,-1,-1,-1,-1,-1,-1,-1,-1,-1,-1,-1,-1,-1,-1,-1,-1,-1,-1,-1,-1,-1,-1,-1,-1,-1,-1,-1,-1,-1,-1,-1,-1,-1,-1,-1,-1,-1],"split_conditions":[2.2202155E-1,7.7285886E-2,5.046948E-1,1.3359897E-2,3.9130434E-1,2.9577464E-1,8.450704E-2,6.3615024E-1,3.043478E-1,9.6244134E-2,1.6431925E-1,3.9130434E-1,3.802817E-1,5.0116116E-1,1.7391305E-1,-9.841841E-3,-5.069237E-4,2.2973576E-1,3.6071396E-1,1.713615E-1,3.043478E-1,1.1032864E-1,3.1220657E-1,1.713615E-1,3.5160765E-1,3.1455398E-1,9.5652175E-1,9.5652175E-1,9.5652175E-1,1.3145539E-1,7.7245586E-2,-8.138726E-3,1.2910798E-1,1.056338E-1,3.7558687E-1,1.6666667E-1,6.666667E-1,1.520708E-1,3.3860394E-1,4.0140846E-1,3.6452857E-1,2.550199E-2,2.0984896E-1,3.7558687E-1,2.667873E-1,8.2608694E-1,3.4507042E-1,1E0,8.333333E-1,1E0,8.333333E-1,1.6847039E-2,4.815728E-1,6.4319247E-1,6.713615E-1,5.56338E-1,8.333333E-1,1.7440302E-2,5.938967E-1,-6.4878503E-4,-7.1261935E-3,-5.8211437E-3,-1.2670461E-3,-3.686099E-3,-2.644184E-4,-6.549985E-3,-4.8114723E-3,-5.1093446E-3,-3.2901005E-3,-5.7411348E-3,-3.3948289E-3,-3.9137453E-3,-1.9113086E-3,-3.0265527E-3,-2.0397632E-4,-1.3565046E-3,5.6168035E-4,5.992902E-3,7.9883216E-4,6.581251E-4,3.935039E-3,-2.3473138E-3,8.2335545E-4,1.7181184E-4,3.0629789E-3,4.3933215E-3,1.7195959E-3,4.576902E-3,8.845068E-3,5.4325126E-3,3.5978113E-3,8.12732E-3,6.1453828E-3,9.798108E-3,6.4762156E-3,1.51218E-2,1.0520877E-2,8.963827E-3,1.31047545E-2,1.5625682E-2,2.0151949E-2,2.0412603E-2,2.5631964E-2,-9.810177E-4,3.614831E-3,9.765977E-3,4.7702263E-3,3.5695657E-3,1.632546E-2,1.1913502E-2,1.4574726E-2],"split_indices":[116,116,115,116,7,0,50,90,2,0,115,2,115,116,7,0,0,16,66,115,2,115,5,0,106,115,32,17,27,5,41,0,25,115,15,5,8,116,66,25,66,31,1,115,116,2,115,13,8,53,38,0,111,110,115,90,3,36,115,0,0,0,0,0,0,0,0,0,0,0,0,0,0,0,0,0,0,0,0,0,0,0,0,0,0,0,0,0,0,0,0,0,0,0,0,0,0,0,0,0,0,0,0,0,0,0,0,0,0,0,0],"split_type":[0,0,0,0,0,0,0,0,0,0,0,0,0,0,0,0,0,0,0,0,0,0,0,0,0,0,0,0,0,0,0,0,0,0,0,0,0,0,0,0,0,0,0,0,0,0,0,0,0,0,0,0,0,0,0,0,0,0,0,0,0,0,0,0,0,0,0,0,0,0,0,0,0,0,0,0,0,0,0,0,0,0,0,0,0,0,0,0,0,0,0,0,0,0,0,0,0,0,0,0,0,0,0,0,0,0,0,0,0,0,0],"sum_hessian":[7.584E3,4.264E3,3.32E3,2.927E3,1.337E3,2.517E3,8.03E2,2.258E3,6.69E2,8.15E2,5.22E2,5.23E2,1.994E3,4.08E2,3.95E2,2.257E3,1E0,5.54E2,1.15E2,4.73E2,3.42E2,2.08E2,3.14E2,2.89E2,2.34E2,9.37E2,1.057E3,1.08E2,3E2,1.01E2,2.94E2,4.5E2,1.04E2,8.8E1,2.7E1,3.9E2,8.3E1,1.9E2,1.52E2,6.6E1,1.42E2,1.82E2,1.32E2,1.46E2,1.43E2,1.55E2,7.9E1,3.12E2,6.25E2,8.46E2,2.11E2,3.1E1,7.7E1,1.45E2,1.55E2,2.5E1,7.6E1,8.1E1,2.13E2,1E0,1.03E2,8.6E1,2E0,2.5E1,2E0,3.63E2,2.7E1,5.3E1,3E1,9.6E1,9.4E1,6.5E1,8.7E1,5.4E1,1.2E1,7.9E1,6.3E1,7E0,1.75E2,1.4E1,1.18E2,1.15E2,3.1E1,4.3E1,1E2,1.22E2,3.3E1,1.8E1,6.1E1,2.55E2,5.7E1,3.93E2,2.32E2,7.45E2,1.01E2,1.56E2,5.5E1,3.4E1,4.3E1,5E1,9.5E1,9.2E1,6.3E1,4E0,2.1E1,7E1,6E0,1E0,8E1,1.47E2,6.6E1],"tree_param":{"num_deleted":"0","num_feature":"120","num_nodes":"111","size_leaf_vector":"1"}},{"base_weights":[7.918751E-5,-1.3821162E-1,1.7767937E-1,-1.7290759E-1,-4.4192385E-2,1.3941698E-1,2.9729012E-1,-1.8587136E-1,-1.3192454E-1,-9.189382E-2,1.966043E-2,7.315763E-2,1.7319836E-1,2.3651716E-1,3.611965E-1,-9.35647E-3,-1.607867E-1,-1.443814E-1,-8.776271E-2,-1.1113386E-1,-6.849946E-2,-1.6679872E-2,4.0248536E-2,1.3640755E-2,1.092912E-1,1.3977477E-1,2.041004E-1,2.8322786E-1,1.780505E-1,4.063965E-1,2.8774908E-1,-8.140085E-3,-6.1651357E-2,-1.4759381E-1,-1.2287611E-1,-1.0507405E-1,-6.26321E-2,-1.1848279E-1,-8.5576855E-2,-8.3218075E-2,-4.8876077E-2,-3.2633882E-2,1.8886552E-4,2.2057466E-2,7.257189E-2,-2.5022723E-2,5.839945E-2,8.552621E-2,1.4213218E-1,1.5467995E-1,1.1435289E-1,1.8546343E-1,2.7012765E-1,2.0540012E-1,2.98122E-1,5.210234E-2,1.9539627E-1,2.0688945E-1,4.1511443E-1,2.8952733E-1,4.8084112E-4,-3.7805901E-3,-4.942507E-4,-7.604241E-3,-6.771292E-3,-6.187567E-3,-1.2995538E-3,-5.9000156E-3,-4.0779444E-3,-3.4668613E-3,1.9871518E-3,-6.017132E-3,-3.5728177E-3,-4.8586084E-3,-3.130902E-3,-5.011489E-3,-2.8741895E-3,-1.0477877E-3,-3.2124345E-3,-2.3467771E-3,-7.245293E-4,-6.258218E-4,1.7295594E-3,5.9762006E-3,8.194046E-4,3.1729352E-3,6.192719E-3,-1.9136958E-3,1.5333355E-3,1.9040126E-3,4.255418E-3,3.1319305E-3,4.9078194E-3,6.1756964E-3,9.110343E-3,9.239346E-3,6.9470042E-3,3.4127485E-3,6.2654796E-3,9.652257E-3,6.0537E-3,1.4511945E-2,1.0180931E-2,1.14052985E-2,6.6705504E-3,1.5076305E-2,5.593197E-3,-9.4177696E-4,3.3615846E-3,6.8721035E-3,1.0217478E-2,2.816186E-3,1.1568512E-2,1.9054051E-2,2.3064127E-2,1.1562227E-2,1.516284E-2],"categories":[],"categories_nodes":[],"categories_segments":[],"categories_sizes":[],"default_left":[0,0,0,0,0,0,0,0,0,0,0,0,0,0,0,0,0,0,0,0,0,0,0,0,0,0,0,0,0,0,0,0,0,0,0,0,0,0,0,0,0,0,0,0,0,0,0,0,0,0,0,0,0,0,0,0,0,0,0,0,0,0,0,0,0,0,0,0,0,0,0,0,0,0,0,0,0,0,0,0,0,0,0,0,0,0,0,0,0,0,0,0,0,0,0,0,0,0,0,0,0,0,0,0,0,0,0,0,0,0,0,0,0,0,0,0,0],"id":3,"left_children":[1,3,5,7,9,11,13,15,17,19,21,23,25,27,29,-1,31,33,35,37,39,41,43,45,47,49,51,53,55,57,59,-1,61,63,65,67,69,71,73,75,77,79,81,83,85,87,89,91,93,95,97,99,101,103,105,107,109,111,113,115,-1,-1,-1,-1,-1,-1,-1,-1,-1,-1,-1,-1,-1,-1,-1,-1,-1,-1,-1,-1,-1,-1,-1,-1,-1,-1,-1,-1,-1,-1,-1,-1,-1,-1,-1,-1,-1,-1,-1,-1,-1,-1,-1,-1,-1,-1,-1,-1,-1,-1,-1,-1,-1,-1,-1,-1,-1],"loss_changes":[1.8631575E2,1.3905167E1,1.5157425E1,1.6304626E0,3.507604E0,5.6234436E0,3.0371246E0,4.4517517E-2,4.010172E-1,2.8900862E-1,3.695231E-1,1.8307838E0,1.6932449E0,1.0829449E0,1.1777916E0,0E0,1.3933897E-2,2.2277832E-2,6.6506505E-2,5.747509E-2,8.258128E-2,4.817936E-2,1.8361807E-1,5.6042147E-1,4.014902E-1,2.869625E-1,1.0130959E0,2.04216E-1,3.9835215E-1,3.2980728E-1,7.239342E-2,0E0,2.143301E-3,6.94561E-3,3.7369728E-3,2.016449E-2,5.149281E-2,1.5627623E-2,1.6277313E-2,6.866169E-2,5.4879874E-2,2.3191974E-2,3.889704E-2,1.1021382E-1,4.4950604E-2,1.2957728E-1,7.816464E-2,8.346462E-2,1.4238787E-1,2.1316147E-1,1.4347649E-1,3.071251E-1,1.9236755E-1,3.495109E-2,8.673859E-2,2.7024202E-2,5.701065E-2,3.1199992E-2,1.8246078E-1,5.070114E-2,0E0,0E0,0E0,0E0,0E0,0E0,0E0,0E0,0E0,0E0,0E0,0E0,0E0,0E0,0E0,0E0,0E0,0E0,0E0,0E0,0E0,0E0,0E0,0E0,0E0,0E0,0E0,0E0,0E0,0E0,0E0,0E0,0E0,0E0,0E0,0E0,0E0,0E0,0E0,0E0,0E0,0E0,0E0,0E0,0E0,0E0,0E0,0E0,0E0,0E0,0E0,0E0,0E0,0E0,0E0,0E0,0E0],"parents":[2147483647,0,0,1,1,2,2,3,3,4,4,5,5,6,6,7,7,8,8,9,9,10,10,11,11,12,12,13,13,14,14,16,16,17,17,18,18,19,19,20,20,21,21,22,22,23,23,24,24,25,25,26,26,27,27,28,28,29,29,30,30,32,32,33,33,34,34,35,35,36,36,37,37,38,38,39,39,40,40,41,41,42,42,43,43,44,44,45,45,46,46,47,47,48,48,49,49,50,50,51,51,52,52,53,53,54,54,55,55,56,56,57,57,58,58,59,59],"right_children":[2,4,6,8,10,12,14,16,18,20,22,24,26,28,30,-1,32,34,36,38,40,42,44,46,48,50,52,54,56,58,60,-1,62,64,66,68,70,72,74,76,78,80,82,84,86,88,90,92,94,96,98,100,102,104,106,108,110,112,114,116,-1,-1,-1,-1,-1,-1,-1,-1,-1,-1,-1,-1,-1,-1,-1,-1,-1,-1,-1,-1,-1,-1,-1,-1,-1,-1,-1,-1,-1,-1,-1,-1,-1,-1,-1,-1,-1,-1,-1,-1,-1,-1,-1,-1,-1,-1,-1,-1,-1,-1,-1,-1,-1,-1,-1,-1,-1],"split_conditions":[2.2202155E-1,9.3668506E-2,5.046948E-1,2.832102E-2,3.9130434E-1,3.42723E-1,8.695652E-1,1.173709E-2,3.478261E-1,9.6244134E-2,1.6431925E-1,3.9130434E-1,3.9201877E-1,7.746479E-2,5E-1,-9.35647E-3,4.2488262E-1,2.7230048E-1,6.807512E-2,1.713615E-1,3.043478E-1,1.2910798E-1,3.0092067E-1,1.8544601E-1,3.4976527E-1,8.333333E-1,9.5652175E-1,4.600939E-1,1.2910798E-1,4.5319405E-1,5.023474E-1,-8.140085E-3,5.399061E-2,7.042254E-2,7.256554E-1,1.7605634E-1,1.23949125E-1,3.043478E-1,6.666667E-1,1.9014084E-1,5E-1,5.399061E-1,4.6841225E-1,2.347418E-2,3.0266348E-1,3.9201877E-1,3.6384976E-1,2.8766534E-1,4.1079423E-1,2.3239437E-1,5.217391E-1,1E0,8.333333E-1,6.666667E-1,1E0,5.56338E-1,9.6244134E-2,1.520708E-1,7.0187795E-1,3.6619717E-1,4.8084112E-4,-3.7805901E-3,-4.942507E-4,-7.604241E-3,-6.771292E-3,-6.187567E-3,-1.2995538E-3,-5.9000156E-3,-4.0779444E-3,-3.4668613E-3,1.9871518E-3,-6.017132E-3,-3.5728177E-3,-4.8586084E-3,-3.130902E-3,-5.011489E-3,-2.8741895E-3,-1.0477877E-3,-3.2124345E-3,-2.3467771E-3,-7.245293E-4,-6.258218E-4,1.7295594E-3,5.9762006E-3,8.194046E-4,3.1729352E-3,6.192719E-3,-1.9136958E-3,1.5333355E-3,1.9040126E-3,4.255418E-3,3.1319305E-3,4.9078194E-3,6.1756964E-3,9.110343E-3,9.239346E-3,6.9470042E-3,3.4127485E-3,6.2654796E-3,9.652257E-3,6.0537E-3,1.4511945E-2,1.0180931E-2,1.14052985E-2,6.6705504E-3,1.5076305E-2,5.593197E-3,-9.4177696E-4,3.3615846E-3,6.8721035E-3,1.0217478E-2,2.816186E-3,1.1568512E-2,1.9054051E-2,2.3064127E-2,1.1562227E-2,1.516284E-2],"split_indices":[116,116,115,116,7,0,22,110,7,0,115,2,115,40,3,0,40,15,115,115,2,115,6,0,115,8,32,100,5,116,80,0,0,115,51,5,111,2,8,115,3,45,36,30,106,115,115,6,106,50,12,53,38,23,2,90,45,86,0,100,0,0,0,0,0,0,0,0,0,0,0,0,0,0,0,0,0,0,0,0,0,0,0,0,0,0,0,0,0,0,0,0,0,0,0,0,0,0,0,0,0,0,0,0,0,0,0,0,0,0,0,0,0,0,0,0,0],"split_type":[0,0,0,0,0,0,0,0,0,0,0,0,0,0,0,0,0,0,0,0,0,0,0,0,0,0,0,0,0,0,0,0,0,0,0,0,0,0,0,0,0,0,0,0,0,0,0,0,0,0,0,0,0,0,0,0,0,0,0,0,0,0,0,0,0,0,0,0,0,0,0,0,0,0,0,0,0,0,0,0,0,0,0,0,0,0,0,0,0,0,0,0,0,0,0,0,0,0,0,0,0,0,0,0,0,0,0,0,0,0,0,0,0,0,0,0,0],"sum_hessian":[7.584E3,4.264E3,3.32E3,3.114E3,1.15E3,2.517E3,8.03E2,2.363E3,7.51E2,6.58E2,4.92E2,8.51E2,1.666E3,4.14E2,3.89E2,2.244E3,1.19E2,5.84E2,1.67E2,3.59E2,2.99E2,1.78E2,3.14E2,3.22E2,5.29E2,8.03E2,8.63E2,2.28E2,1.86E2,2.38E2,1.51E2,1.16E2,3E0,5.03E2,8.1E1,9.7E1,7E1,2.76E2,8.3E1,1.69E2,1.3E2,9.1E1,8.7E1,2.02E2,1.12E2,1.73E2,1.49E2,3.09E2,2.2E2,5.03E2,3E2,6.76E2,1.87E2,3.9E1,1.89E2,2.3E1,1.63E2,1.1E1,2.27E2,1.5E2,1E0,2E0,1E0,3.59E2,1.44E2,8E1,1E0,6E1,3.7E1,6.6E1,4E0,2.64E2,1.2E1,5.3E1,3E1,1E2,6.9E1,4.7E1,8.3E1,5E1,4.1E1,6.4E1,2.3E1,1E1,1.92E2,9.7E1,1.5E1,1.4E2,3.3E1,8.6E1,6.3E1,1.12E2,1.97E2,1.53E2,6.7E1,1.69E2,3.34E2,5.9E1,2.41E2,6.03E2,7.3E1,1.41E2,4.6E1,2.8E1,1.1E1,1.85E2,4E0,4E0,1.9E1,2.4E1,1.39E2,2E0,9E0,1.36E2,9.1E1,3.2E1,1.18E2],"tree_param":{"num_deleted":"0","num_feature":"120","num_nodes":"117","size_leaf_vector":"1"}},{"base_weights":[9.720703E-5,-1.313176E-1,1.6886687E-1,-1.6224971E-1,-3.5970844E-2,1.2589274E-1,2.658252E-1,-1.7635484E-1,-1.2181553E-1,-8.331445E-2,2.0678684E-2,4.3915514E-2,1.4936224E-1,2.3356257E-1,3.730586E-1,-8.888855E-3,-1.52459E-1,-1.3553965E-1,-7.749514E-2,-9.348718E-2,-4.5585178E-2,-7.2914804E-3,4.2518444E-2,-1.6307518E-2,8.232607E-2,1.1768911E-1,1.910707E-1,2.8232056E-1,2.0138536E-1,4.3908262E-1,3.2559183E-1,-7.702235E-3,-5.9637494E-2,-1.3849126E-1,-1.1580961E-1,-9.135277E-2,-4.5177314E-2,-1.0446171E-1,-6.461213E-2,-1.528849E-2,-5.8949716E-2,-2.0065686E-2,1.7471105E-2,2.1735616E-2,6.997964E-2,-3.2032683E-2,2.7093073E-2,5.2744087E-2,1.0187174E-1,9.461301E-2,1.3692892E-1,1.7528255E-1,2.5689745E-1,2.0385863E-1,3.0477634E-1,2.0972267E-1,1.10041305E-1,4.4715753E-1,1.2238941E-2,3.4110606E-1,1.3128593E-2,-3.65457E-3,-4.8189424E-4,-7.2230124E-3,-6.4919363E-3,-5.8274847E-3,-1.2670647E-3,-5.1332586E-3,-3.229749E-3,-2.640669E-3,1.744741E-3,-5.5651106E-3,-4.1146195E-3,-4.04305E-3,-2.4307629E-3,-1.979196E-3,1.6668589E-4,-3.25278E-3,-8.025682E-6,-1.3358586E-3,5.666883E-4,-1.2938705E-3,1.2440089E-3,5.4692538E-3,8.4088574E-4,-5.174936E-4,3.7248202E-3,-2.3136472E-3,-2.4265544E-4,-4.609235E-4,1.8843644E-3,3.3395637E-3,1.0260832E-3,4.358377E-3,6.6663274E-3,3.888758E-3,5.6265923E-3,7.088301E-3,3.275439E-3,8.329535E-3,1.2443456E-2,8.3121825E-3,1.4404713E-2,1.4515363E-2,9.261646E-3,1.6294792E-2,1.057835E-2,8.811443E-3,1.1030993E-2,1.6563287E-3,6.985149E-3,6.552244E-3,2.2461846E-2,1.712962E-2,4.5145163E-3],"categories":[],"categories_nodes":[],"categories_segments":[],"categories_sizes":[],"default_left":[0,0,0,0,0,0,0,0,0,0,0,0,0,0,0,0,0,0,0,0,0,0,0,0,0,0,0,0,0,0,0,0,0,0,0,0,0,0,0,0,0,0,0,0,0,0,0,0,0,0,0,0,0,0,0,0,0,0,0,0,0,0,0,0,0,0,0,0,0,0,0,0,0,0,0,0,0,0,0,0,0,0,0,0,0,0,0,0,0,0,0,0,0,0,0,0,0,0,0,0,0,0,0,0,0,0,0,0,0,0,0,0,0,0,0],"id":4,"left_children":[1,3,5,7,9,11,13,15,17,19,21,23,25,27,29,-1,31,33,35,37,39,41,43,45,47,49,51,53,55,57,59,-1,61,63,65,67,69,71,73,75,77,79,81,83,85,87,89,91,93,95,97,99,101,103,105,107,109,111,-1,113,-1,-1,-1,-1,-1,-1,-1,-1,-1,-1,-1,-1,-1,-1,-1,-1,-1,-1,-1,-1,-1,-1,-1,-1,-1,-1,-1,-1,-1,-1,-1,-1,-1,-1,-1,-1,-1,-1,-1,-1,-1,-1,-1,-1,-1,-1,-1,-1,-1,-1,-1,-1,-1,-1,-1],"loss_changes":[1.6824863E2,1.257283E1,1.3804146E1,1.8149719E0,2.8070874E0,4.4243355E0,3.4382324E0,5.394745E-2,4.9800014E-1,2.1450996E-1,2.9169104E-1,1.1903274E0,2.342167E0,1.1762962E0,5.903778E-1,0E0,1.1566639E-2,2.1057129E-2,8.544254E-2,1.3521719E-1,4.8901588E-2,6.677827E-2,1.5143225E-1,1.3804662E-1,1.7618155E-1,4.399042E-1,7.56258E-1,4.840641E-1,3.4018898E-1,3.9598465E-2,4.7314644E-2,0E0,1.9863155E-3,9.597778E-3,3.0053854E-3,3.544295E-2,3.9751932E-2,3.9823532E-2,2.8820276E-2,1.777691E-2,3.0501157E-2,2.933336E-2,2.376824E-2,6.454228E-2,4.2496383E-2,5.7057977E-2,2.1120802E-2,5.611393E-2,7.533169E-2,1.3214827E-1,1.8210125E-1,3.5829353E-1,3.6783886E-1,6.215763E-2,4.0153313E-1,1.2025452E-1,9.119177E-2,2.89917E-4,0E0,9.7026825E-3,0E0,0E0,0E0,0E0,0E0,0E0,0E0,0E0,0E0,0E0,0E0,0E0,0E0,0E0,0E0,0E0,0E0,0E0,0E0,0E0,0E0,0E0,0E0,0E0,0E0,0E0,0E0,0E0,0E0,0E0,0E0,0E0,0E0,0E0,0E0,0E0,0E0,0E0,0E0,0E0,0E0,0E0,0E0,0E0,0E0,0E0,0E0,0E0,0E0,0E0,0E0,0E0,0E0,0E0,0E0],"parents":[2147483647,0,0,1,1,2,2,3,3,4,4,5,5,6,6,7,7,8,8,9,9,10,10,11,11,12,12,13,13,14,14,16,16,17,17,18,18,19,19,20,20,21,21,22,22,23,23,24,24,25,25,26,26,27,27,28,28,29,29,30,30,32,32,33,33,34,34,35,35,36,36,37,37,38,38,39,39,40,40,41,41,42,42,43,43,44,44,45,45,46,46,47,47,48,48,49,49,50,50,51,51,52,52,53,53,54,54,55,55,56,56,57,57,59,59],"right_children":[2,4,6,8,10,12,14,16,18,20,22,24,26,28,30,-1,32,34,36,38,40,42,44,46,48,50,52,54,56,58,60,-1,62,64,66,68,70,72,74,76,78,80,82,84,86,88,90,92,94,96,98,100,102,104,106,108,110,112,-1,114,-1,-1,-1,-1,-1,-1,-1,-1,-1,-1,-1,-1,-1,-1,-1,-1,-1,-1,-1,-1,-1,-1,-1,-1,-1,-1,-1,-1,-1,-1,-1,-1,-1,-1,-1,-1,-1,-1,-1,-1,-1,-1,-1,-1,-1,-1,-1,-1,-1,-1,-1,-1,-1,-1,-1],"split_conditions":[2.2202155E-1,1.0407648E-1,4.71831E-1,3.1027857E-2,3.9130434E-1,4.347826E-1,6.2441313E-1,1.173709E-2,3.478261E-1,3.043478E-1,1.8075117E-1,2.0187794E-1,4.084507E-1,1.10754795E-1,6.807512E-2,-8.888855E-3,4.483568E-1,2.793427E-1,7.981221E-2,1.9014084E-1,5E-1,3.6961657E-1,3.1220657E-1,3.7558687E-1,2.9107982E-1,3.4037557E-1,5.633803E-1,4.201878E-1,1E0,7.746479E-2,1.4319248E-1,-7.702235E-3,5.399061E-2,6.607621E-2,7.256554E-1,3.6071396E-1,1.23949125E-1,9.5652175E-1,8.333333E-1,1.6666667E-1,3.531653E-1,4.4821936E-1,2.4178404E-1,2.550199E-2,1.9375826E-1,1.5258215E-1,5.442211E-2,7.3913044E-1,3.612673E-1,3.8261372E-1,9.5652175E-1,9.5652175E-1,7.3913044E-1,3.521127E-2,9.5652175E-1,3.685446E-1,2.7230048E-1,1.5962441E-1,1.2238941E-2,1E0,1.3128593E-2,-3.65457E-3,-4.8189424E-4,-7.2230124E-3,-6.4919363E-3,-5.8274847E-3,-1.2670647E-3,-5.1332586E-3,-3.229749E-3,-2.640669E-3,1.744741E-3,-5.5651106E-3,-4.1146195E-3,-4.04305E-3,-2.4307629E-3,-1.979196E-3,1.6668589E-4,-3.25278E-3,-8.025682E-6,-1.3358586E-3,5.666883E-4,-1.2938705E-3,1.2440089E-3,5.4692538E-3,8.4088574E-4,-5.174936E-4,3.7248202E-3,-2.3136472E-3,-2.4265544E-4,-4.609235E-4,1.8843644E-3,3.3395637E-3,1.0260832E-3,4.358377E-3,6.6663274E-3,3.888758E-3,5.6265923E-3,7.088301E-3,3.275439E-3,8.329535E-3,1.2443456E-2,8.3121825E-3,1.4404713E-2,1.4515363E-2,9.261646E-3,1.6294792E-2,1.057835E-2,8.811443E-3,1.1030993E-2,1.6563287E-3,6.985149E-3,6.552244E-3,2.2461846E-2,1.712962E-2,4.5145163E-3],"split_indices":[116,116,0,116,7,2,115,110,7,2,115,0,115,46,55,0,40,15,115,115,3,61,5,115,0,115,115,115,28,50,50,0,0,116,51,66,111,97,118,0,96,16,10,31,1,0,6,77,96,31,17,32,7,35,17,105,20,75,0,33,0,0,0,0,0,0,0,0,0,0,0,0,0,0,0,0,0,0,0,0,0,0,0,0,0,0,0,0,0,0,0,0,0,0,0,0,0,0,0,0,0,0,0,0,0,0,0,0,0,0,0,0,0,0,0],"split_type":[0,0,0,0,0,0,0,0,0,0,0,0,0,0,0,0,0,0,0,0,0,0,0,0,0,0,0,0,0,0,0,0,0,0,0,0,0,0,0,0,0,0,0,0,0,0,0,0,0,0,0,0,0,0,0,0,0,0,0,0,0,0,0,0,0,0,0,0,0,0,0,0,0,0,0,0,0,0,0,0,0,0,0,0,0,0,0,0,0,0,0,0,0,0,0,0,0,0,0,0,0,0,0,0,0,0,0,0,0,0,0,0,0,0,0],"sum_hessian":[7.584E3,4.264E3,3.32E3,3.219E3,1.045E3,2.302E3,1.018E3,2.384E3,8.35E2,5.69E2,4.76E2,5.13E2,1.789E3,7.85E2,2.33E2,2.244E3,1.4E2,6.36E2,1.99E2,4.47E2,1.22E2,2.09E2,2.67E2,2E2,3.13E2,1.019E3,7.7E2,3.09E2,4.76E2,9.4E1,1.39E2,1.37E2,3E0,5.48E2,8.8E1,1.38E2,6.1E1,3.22E2,1.25E2,3.8E1,8.4E1,1.38E2,7.1E1,1.53E2,1.14E2,1.47E2,5.3E1,1.26E2,1.87E2,4.66E2,5.53E2,6.24E2,1.46E2,7.1E1,2.38E2,4.35E2,4.1E1,8.9E1,5E0,1.08E2,3.1E1,2E0,1E0,3.15E2,2.33E2,8.7E1,1E0,9.5E1,4.3E1,5.6E1,5E0,2.43E2,7.9E1,6E1,6.5E1,1.6E1,2.2E1,7.6E1,8E0,1.14E2,2.4E1,1E1,6.1E1,7E0,1.46E2,6E0,1.08E2,9.6E1,5.1E1,1.2E1,4.1E1,8.7E1,3.9E1,1.3E2,5.7E1,2.43E2,2.23E2,5.17E2,3.6E1,5.61E2,6.3E1,3.9E1,1.07E2,1E1,6.1E1,1.92E2,4.6E1,1.11E2,3.24E2,1.2E1,2.9E1,1E0,8.8E1,1.07E2,1E0],"tree_param":{"num_deleted":"0","num_feature":"120","num_nodes":"115","size_leaf_vector":"1"}},{"base_weights":[1.14686896E-4,-1.24766566E-1,1.6049363E-1,-1.54153E-1,-3.418428E-2,1.1999306E-1,2.5370684E-1,-1.6754578E-1,-1.1576073E-1,-7.918597E-2,1.9662987E-2,3.6086045E-2,1.4172544E-1,2.0170832E-1,3.1713364E-1,-8.44461E-3,-1.4492E-1,-1.2879534E-1,-7.3666684E-2,-8.884889E-2,-4.334717E-2,-6.9308067E-3,4.042804E-2,1.2489947E-3,8.3679E-2,1.1330785E-1,1.7212978E-1,2.5803444E-1,1.6560327E-1,3.6140156E-1,2.5498152E-1,-7.3199137E-3,-5.768974E-2,-1.319915E-1,-1.12102024E-1,-8.68453E-2,-4.2932905E-2,-9.926859E-2,-6.1432898E-2,-1.4570537E-2,-5.6040596E-2,-1.9067936E-2,1.6596857E-2,2.0689808E-2,6.6508554E-2,-3.0446358E-2,3.5794687E-2,6.1345678E-2,1.29807E-1,8.563288E-2,1.2637016E-1,1.5714361E-1,2.3220412E-1,1.8208683E-1,2.7542004E-1,4.8085365E-2,1.7931658E-1,3.0133846E-1,3.9452106E-1,1.8616915E-1,2.6664737E-1,-3.5327512E-3,-4.6984703E-4,-6.7313076E-3,-5.7388716E-3,-5.634123E-3,-1.2353882E-3,-4.8792693E-3,-3.0719317E-3,-2.5109518E-3,1.6720431E-3,-5.2879956E-3,-3.9114603E-3,-3.8442116E-3,-2.311066E-3,-1.8860571E-3,1.5871401E-4,-3.0922533E-3,-7.6687165E-6,-1.2696463E-3,5.3948717E-4,-1.2350584E-3,1.1828117E-3,5.2299737E-3,7.991274E-4,9.460937E-3,3.1331095E-3,-2.0401606E-3,5.307516E-4,6.7228824E-4,3.1798824E-3,3.6165982E-3,8.7790954E-4,7.261827E-3,3.1612664E-3,4.5720316E-3,2.8880716E-3,6.0002743E-3,8.464212E-3,7.460886E-3,1.0296934E-2,1.5884608E-2,1.0757729E-2,1.0296452E-2,5.166683E-3,5.4732473E-3,1.3885239E-2,-1.5808579E-3,3.0763461E-3,7.299997E-3,9.696067E-3,7.3177475E-3,1.5681257E-2,2.031719E-2,1.5193067E-2,2.2597795E-3,9.71665E-3,1.3413141E-2,2.0436123E-4],"categories":[],"categories_nodes":[],"categories_segments":[],"categories_sizes":[],"default_left":[0,0,0,0,0,0,0,0,0,0,0,0,0,0,0,0,0,0,0,0,0,0,0,0,0,0,0,0,0,0,0,0,0,0,0,0,0,0,0,0,0,0,0,0,0,0,0,0,0,0,0,0,0,0,0,0,0,0,0,0,0,0,0,0,0,0,0,0,0,0,0,0,0,0,0,0,0,0,0,0,0,0,0,0,0,0,0,0,0,0,0,0,0,0,0,0,0,0,0,0,0,0,0,0,0,0,0,0,0,0,0,0,0,0,0,0,0,0,0],"id":5,"left_children":[1,3,5,7,9,11,13,15,17,19,21,23,25,27,29,-1,31,33,35,37,39,41,43,45,47,49,51,53,55,57,59,-1,61,63,65,67,69,71,73,75,77,79,81,83,85,87,89,91,93,95,97,99,101,103,105,107,109,111,113,115,117,-1,-1,-1,-1,-1,-1,-1,-1,-1,-1,-1,-1,-1,-1,-1,-1,-1,-1,-1,-1,-1,-1,-1,-1,-1,-1,-1,-1,-1,-1,-1,-1,-1,-1,-1,-1,-1,-1,-1,-1,-1,-1,-1,-1,-1,-1,-1,-1,-1,-1,-1,-1,-1,-1,-1,-1,-1,-1],"loss_changes":[1.5193484E2,1.1347694E1,1.250695E1,1.636261E0,2.536243E0,4.2199326E0,3.2506256E0,4.8187256E-2,4.4920826E-1,1.9354391E-1,2.6368982E-1,7.924186E-1,1.5702896E0,1.085947E0,1.1487045E0,0E0,9.7362995E-3,1.9189835E-2,7.7277064E-2,1.2188029E-1,4.411216E-2,6.028371E-2,1.3658586E-1,3.0438763E-1,2.0013559E-1,3.3404827E-1,7.62064E-1,2.3373508E-1,5.409193E-1,4.0031052E-1,1.0368538E-1,0E0,1.8405784E-3,8.5392E-3,2.7450323E-3,3.1933427E-2,3.6180496E-2,3.5839796E-2,2.6061207E-2,1.6141064E-2,2.7564138E-2,2.652407E-2,2.1575093E-2,5.9155867E-2,4.242176E-2,6.209685E-2,8.17866E-2,6.5116525E-2,5.7593465E-2,4.4736147E-2,1.5613079E-1,2.45018E-1,1.8671513E-1,5.9459567E-2,3.5196304E-2,4.1584373E-2,1.200943E-1,1.388092E-1,5.3380966E-2,2.689445E-2,6.719208E-2,0E0,0E0,0E0,0E0,0E0,0E0,0E0,0E0,0E0,0E0,0E0,0E0,0E0,0E0,0E0,0E0,0E0,0E0,0E0,0E0,0E0,0E0,0E0,0E0,0E0,0E0,0E0,0E0,0E0,0E0,0E0,0E0,0E0,0E0,0E0,0E0,0E0,0E0,0E0,0E0,0E0,0E0,0E0,0E0,0E0,0E0,0E0,0E0,0E0,0E0,0E0,0E0,0E0,0E0,0E0,0E0,0E0,0E0],"parents":[2147483647,0,0,1,1,2,2,3,3,4,4,5,5,6,6,7,7,8,8,9,9,10,10,11,11,12,12,13,13,14,14,16,16,17,17,18,18,19,19,20,20,21,21,22,22,23,23,24,24,25,25,26,26,27,27,28,28,29,29,30,30,32,32,33,33,34,34,35,35,36,36,37,37,38,38,39,39,40,40,41,41,42,42,43,43,44,44,45,45,46,46,47,47,48,48,49,49,50,50,51,51,52,52,53,53,54,54,55,55,56,56,57,57,58,58,59,59,60,60],"right_children":[2,4,6,8,10,12,14,16,18,20,22,24,26,28,30,-1,32,34,36,38,40,42,44,46,48,50,52,54,56,58,60,-1,62,64,66,68,70,72,74,76,78,80,82,84,86,88,90,92,94,96,98,100,102,104,106,108,110,112,114,116,118,-1,-1,-1,-1,-1,-1,-1,-1,-1,-1,-1,-1,-1,-1,-1,-1,-1,-1,-1,-1,-1,-1,-1,-1,-1,-1,-1,-1,-1,-1,-1,-1,-1,-1,-1,-1,-1,-1,-1,-1,-1,-1,-1,-1,-1,-1,-1,-1,-1,-1,-1,-1,-1,-1,-1,-1,-1,-1],"split_conditions":[2.2202155E-1,1.0407648E-1,4.765258E-1,3.1027857E-2,3.9130434E-1,2.9107982E-1,8.695652E-1,1.173709E-2,3.478261E-1,3.043478E-1,1.8075117E-1,3.9130434E-1,3.802817E-1,6.338028E-2,5E-1,-8.44461E-3,4.483568E-1,1.8544601E-1,7.981221E-2,1.9014084E-1,5E-1,3.6961657E-1,3.1220657E-1,1.713615E-1,3.5160765E-1,3.1220657E-1,9.5652175E-1,4.600939E-1,1.2910798E-1,5.938967E-1,4.323901E-1,-7.3199137E-3,5.399061E-2,1.713615E-1,7.256554E-1,3.6071396E-1,1.23949125E-1,9.5652175E-1,8.333333E-1,1.6666667E-1,3.531653E-1,4.4821936E-1,2.4178404E-1,2.550199E-2,1.8779343E-2,3.7558687E-1,3.6384976E-1,8.2608694E-1,1E0,1E0,4.8826292E-1,9.5652175E-1,1.6431925E-1,6.666667E-1,7.327302E-2,3.802817E-1,3.451156E-1,2.0143762E-1,9.177318E-2,3.723419E-1,5.023474E-1,-3.5327512E-3,-4.6984703E-4,-6.7313076E-3,-5.7388716E-3,-5.634123E-3,-1.2353882E-3,-4.8792693E-3,-3.0719317E-3,-2.5109518E-3,1.6720431E-3,-5.2879956E-3,-3.9114603E-3,-3.8442116E-3,-2.311066E-3,-1.8860571E-3,1.5871401E-4,-3.0922533E-3,-7.6687165E-6,-1.2696463E-3,5.3948717E-4,-1.2350584E-3,1.1828117E-3,5.2299737E-3,7.991274E-4,9.460937E-3,3.1331095E-3,-2.0401606E-3,5.307516E-4,6.7228824E-4,3.1798824E-3,3.6165982E-3,8.7790954E-4,7.261827E-3,3.1612664E-3,4.5720316E-3,2.8880716E-3,6.0002743E-3,8.464212E-3,7.460886E-3,1.0296934E-2,1.5884608E-2,1.0757729E-2,1.0296452E-2,5.166683E-3,5.4732473E-3,1.3885239E-2,-1.5808579E-3,3.0763461E-3,7.299997E-3,9.696067E-3,7.3177475E-3,1.5681257E-2,2.031719E-2,1.5193067E-2,2.2597795E-3,9.71665E-3,1.3413141E-2,2.0436123E-4],"split_indices":[116,116,115,116,7,0,22,110,7,2,115,2,115,40,3,0,40,10,115,115,3,61,5,0,106,115,32,100,5,0,116,0,0,110,51,66,111,97,118,0,96,16,10,31,35,115,115,2,17,13,0,7,35,23,56,105,1,6,46,116,80,0,0,0,0,0,0,0,0,0,0,0,0,0,0,0,0,0,0,0,0,0,0,0,0,0,0,0,0,0,0,0,0,0,0,0,0,0,0,0,0,0,0,0,0,0,0,0,0,0,0,0,0,0,0,0,0,0,0],"split_type":[0,0,0,0,0,0,0,0,0,0,0,0,0,0,0,0,0,0,0,0,0,0,0,0,0,0,0,0,0,0,0,0,0,0,0,0,0,0,0,0,0,0,0,0,0,0,0,0,0,0,0,0,0,0,0,0,0,0,0,0,0,0,0,0,0,0,0,0,0,0,0,0,0,0,0,0,0,0,0,0,0,0,0,0,0,0,0,0,0,0,0,0,0,0,0,0,0,0,0,0,0,0,0,0,0,0,0,0,0,0,0,0,0,0,0,0,0,0,0],"sum_hessian":[7.584E3,4.264E3,3.32E3,3.219E3,1.045E3,2.316E3,1.004E3,2.384E3,8.35E2,5.69E2,4.76E2,4.77E2,1.839E3,5.54E2,4.5E2,2.244E3,1.4E2,6.36E2,1.99E2,4.47E2,1.22E2,2.09E2,2.67E2,2.76E2,2.01E2,9.53E2,8.86E2,2.14E2,3.4E2,2.6E2,1.9E2,1.37E2,3E0,5.28E2,1.08E2,1.38E2,6.1E1,3.22E2,1.25E2,3.8E1,8.4E1,1.38E2,7.1E1,1.53E2,1.14E2,1.44E2,1.32E2,1.37E2,6.4E1,3.08E2,6.45E2,7.12E2,1.74E2,4.2E1,1.72E2,3.6E1,3.04E2,9.6E1,1.64E2,3E1,1.6E2,2E0,1E0,4.52E2,7.6E1,1.07E2,1E0,9.5E1,4.3E1,5.6E1,5E0,2.43E2,7.9E1,6E1,6.5E1,1.6E1,2.2E1,7.6E1,8E0,1.14E2,2.4E1,1E1,6.1E1,7E0,1.46E2,2E0,1.12E2,1.15E2,2.9E1,7.4E1,5.8E1,1.09E2,2.8E1,5.1E1,1.3E1,2.53E2,5.5E1,5.65E2,8E1,6.16E2,9.6E1,2.6E1,1.48E2,3.1E1,1.1E1,3E0,1.69E2,5E0,3.1E1,9.6E1,2.08E2,8E0,8.8E1,1.42E2,2.2E1,2E0,2.8E1,1.59E2,1E0],"tree_param":{"num_deleted":"0","num_feature":"120","num_nodes":"119","size_leaf_vector":"1"}},{"base_weights":[1.314639E-4,-1.1854002E-1,1.5253548E-1,-1.516684E-1,-4.595524E-2,1.1352225E-1,2.4055801E-1,-1.6036907E-1,-1.22669205E-1,-8.39013E-2,1.33371875E-2,3.9335057E-2,1.3476174E-1,2.1119778E-1,3.3815026E-1,-8.020289E-3,-1.9450461E-3,-8.700956E-2,-1.3007827E-1,-9.990417E-2,-6.1541937E-2,-2.2888161E-2,3.2902267E-2,-6.143849E-3,8.07792E-2,1.0607442E-1,1.7253904E-1,2.555857E-1,1.8190753E-1,3.9884442E-1,2.9454955E-1,-9.525591E-2,-5.7848357E-2,-1.3328916E-1,-1.1432259E-1,-1.08565666E-1,-8.2227446E-2,-8.0518454E-2,-4.8989918E-2,-5.3144243E-2,-1.4383807E-2,1.3461756E-2,5.629495E-2,-3.4644227E-2,1.6411839E-2,5.264637E-2,9.240873E-2,8.50893E-2,1.2357257E-1,1.5796262E-1,2.3333983E-1,2.8105554E-1,1.976197E-1,1.8965547E-1,9.714561E-2,4.090012E-1,1.2817318E-2,1.218898E-2,1.5553693E-2,-4.837385E-3,-9.375286E-4,-3.607598E-3,-1.5786132E-3,-6.6796592E-3,-3.2615126E-3,-5.7490426E-3,-1.1959497E-3,-4.6129837E-3,-5.7439543E-3,-4.44694E-3,-2.6301357E-3,-2.6595534E-3,-4.7735106E-3,-1.0973684E-3,-2.8457989E-3,-6.837895E-5,-3.025092E-3,-1.041456E-3,5.5087666E-4,5.7831896E-3,5.583406E-4,1.6663512E-3,3.5500792E-3,-3.09022E-3,-1.0201767E-3,-6.998635E-5,1.9795103E-3,3.0309167E-3,-8.932361E-4,3.3739412E-3,5.293063E-3,3.4611244E-3,5.099647E-3,6.4045074E-3,2.849347E-3,7.505839E-3,1.121954E-2,7.564023E-3,1.30785825E-2,1.04882205E-2,1.5227224E-2,3.5465842E-3,1.0481694E-2,7.941692E-3,9.984676E-3,1.2028635E-3,6.2789517E-3,1.4884347E-2,2.1142116E-2],"categories":[],"categories_nodes":[],"categories_segments":[],"categories_sizes":[],"default_left":[0,0,0,0,0,0,0,0,0,0,0,0,0,0,0,0,0,0,0,0,0,0,0,0,0,0,0,0,0,0,0,0,0,0,0,0,0,0,0,0,0,0,0,0,0,0,0,0,0,0,0,0,0,0,0,0,0,0,0,0,0,0,0,0,0,0,0,0,0,0,0,0,0,0,0,0,0,0,0,0,0,0,0,0,0,0,0,0,0,0,0,0,0,0,0,0,0,0,0,0,0,0,0,0,0,0,0,0,0],"id":6,"left_children":[1,3,5,7,9,11,13,15,17,19,21,23,25,27,29,-1,-1,31,33,35,37,39,41,43,45,47,49,51,53,55,57,59,61,63,65,67,69,71,73,75,77,79,81,83,85,87,89,91,93,95,97,99,101,103,105,107,-1,-1,-1,-1,-1,-1,-1,-1,-1,-1,-1,-1,-1,-1,-1,-1,-1,-1,-1,-1,-1,-1,-1,-1,-1,-1,-1,-1,-1,-1,-1,-1,-1,-1,-1,-1,-1,-1,-1,-1,-1,-1,-1,-1,-1,-1,-1,-1,-1,-1,-1,-1,-1],"loss_changes":[1.3720047E2,1.0248718E1,1.1377159E1,7.190933E-1,3.011504E0,3.6235294E0,2.8483543E0,3.791809E-3,1.6834164E-1,2.8582716E-1,3.7143028E-1,9.693011E-1,1.9215736E0,9.754143E-1,5.0175476E-1,0E0,0E0,2.3346424E-2,1.3143539E-2,6.364584E-2,7.775593E-2,4.6580337E-2,1.5386257E-1,1.5870862E-1,8.314419E-2,3.6402988E-1,6.464462E-1,4.0213776E-1,2.94837E-1,3.264904E-2,4.1618347E-2,8.685827E-3,8.621432E-3,8.049011E-4,3.3197403E-3,2.1829367E-2,2.7133107E-2,5.008179E-2,4.3548048E-2,1.515533E-2,2.3968827E-2,4.2568896E-2,4.965198E-2,4.089795E-2,5.7027742E-2,4.6614036E-2,5.6241512E-2,1.18192196E-1,1.5934658E-1,2.9205418E-1,3.0098152E-1,2.927971E-1,1.3429093E-1,1.0317516E-1,8.42613E-2,8.167267E-3,0E0,0E0,0E0,0E0,0E0,0E0,0E0,0E0,0E0,0E0,0E0,0E0,0E0,0E0,0E0,0E0,0E0,0E0,0E0,0E0,0E0,0E0,0E0,0E0,0E0,0E0,0E0,0E0,0E0,0E0,0E0,0E0,0E0,0E0,0E0,0E0,0E0,0E0,0E0,0E0,0E0,0E0,0E0,0E0,0E0,0E0,0E0,0E0,0E0,0E0,0E0,0E0,0E0],"parents":[2147483647,0,0,1,1,2,2,3,3,4,4,5,5,6,6,7,7,8,8,9,9,10,10,11,11,12,12,13,13,14,14,17,17,18,18,19,19,20,20,21,21,22,22,23,23,24,24,25,25,26,26,27,27,28,28,29,29,30,30,31,31,32,32,33,33,34,34,35,35,36,36,37,37,38,38,39,39,40,40,41,41,42,42,43,43,44,44,45,45,46,46,47,47,48,48,49,49,50,50,51,51,52,52,53,53,54,54,55,55],"right_children":[2,4,6,8,10,12,14,16,18,20,22,24,26,28,30,-1,-1,32,34,36,38,40,42,44,46,48,50,52,54,56,58,60,62,64,66,68,70,72,74,76,78,80,82,84,86,88,90,92,94,96,98,100,102,104,106,108,-1,-1,-1,-1,-1,-1,-1,-1,-1,-1,-1,-1,-1,-1,-1,-1,-1,-1,-1,-1,-1,-1,-1,-1,-1,-1,-1,-1,-1,-1,-1,-1,-1,-1,-1,-1,-1,-1,-1,-1,-1,-1,-1,-1,-1,-1,-1,-1,-1,-1,-1,-1,-1],"split_conditions":[2.2202155E-1,7.7285886E-2,4.71831E-1,1.173709E-2,3.9130434E-1,4.347826E-1,6.2441313E-1,1.3359897E-2,7.826087E-1,9.6244134E-2,1.5492958E-1,2.3239437E-1,4.084507E-1,1.10754795E-1,6.807512E-2,-8.020289E-3,-1.9450461E-3,3.6071396E-1,1.4788732E-1,1.3615024E-1,1.3035294E-1,1.5492958E-1,2.6760563E-1,1.4553991E-1,2.7313337E-1,3.4037557E-1,5.633803E-1,9.130435E-1,1E0,6.666667E-1,5.633803E-1,1.056338E-1,3.1768453E-1,7.300469E-1,6.0299265E-1,8.2608694E-1,1E0,1.056338E-1,1.0881154E-1,1.2676056E-1,5.586854E-1,1.7440302E-2,1.725066E-1,2.5932252E-1,3.6619717E-1,4.1988418E-1,2.7578247E-1,3.8261372E-1,9.5652175E-1,9.5652175E-1,7.3913044E-1,1.03286386E-1,4.2957747E-1,3.685446E-1,2.7230048E-1,2.9073054E-1,1.2817318E-2,1.218898E-2,1.5553693E-2,-4.837385E-3,-9.375286E-4,-3.607598E-3,-1.5786132E-3,-6.6796592E-3,-3.2615126E-3,-5.7490426E-3,-1.1959497E-3,-4.6129837E-3,-5.7439543E-3,-4.44694E-3,-2.6301357E-3,-2.6595534E-3,-4.7735106E-3,-1.0973684E-3,-2.8457989E-3,-6.837895E-5,-3.025092E-3,-1.041456E-3,5.5087666E-4,5.7831896E-3,5.583406E-4,1.6663512E-3,3.5500792E-3,-3.09022E-3,-1.0201767E-3,-6.998635E-5,1.9795103E-3,3.0309167E-3,-8.932361E-4,3.3739412E-3,5.293063E-3,3.4611244E-3,5.099647E-3,6.4045074E-3,2.849347E-3,7.505839E-3,1.121954E-2,7.564023E-3,1.30785825E-2,1.04882205E-2,1.5227224E-2,3.5465842E-3,1.0481694E-2,7.941692E-3,9.984676E-3,1.2028635E-3,6.2789517E-3,1.4884347E-2,2.1142116E-2],"split_indices":[116,116,0,110,7,2,115,111,87,0,115,0,115,46,55,0,0,66,10,115,116,0,0,0,116,115,115,12,28,33,0,115,21,95,36,92,102,95,96,15,40,26,71,116,115,81,1,31,17,32,7,70,110,105,20,86,0,0,0,0,0,0,0,0,0,0,0,0,0,0,0,0,0,0,0,0,0,0,0,0,0,0,0,0,0,0,0,0,0,0,0,0,0,0,0,0,0,0,0,0,0,0,0,0,0,0,0,0,0],"split_type":[0,0,0,0,0,0,0,0,0,0,0,0,0,0,0,0,0,0,0,0,0,0,0,0,0,0,0,0,0,0,0,0,0,0,0,0,0,0,0,0,0,0,0,0,0,0,0,0,0,0,0,0,0,0,0,0,0,0,0,0,0,0,0,0,0,0,0,0,0,0,0,0,0,0,0,0,0,0,0,0,0,0,0,0,0,0,0,0,0,0,0,0,0,0,0,0,0,0,0,0,0,0,0,0,0,0,0,0,0],"sum_hessian":[7.584E3,4.264E3,3.32E3,2.927E3,1.337E3,2.302E3,1.018E3,2.248E3,6.79E2,8.15E2,5.22E2,5.13E2,1.789E3,7.85E2,2.33E2,2.247E3,1E0,1.19E2,5.6E2,4.73E2,3.42E2,1.83E2,3.39E2,2.45E2,2.68E2,1.019E3,7.7E2,3.09E2,4.76E2,9.4E1,1.39E2,9.1E1,2.8E1,4.59E2,1.01E2,3.14E2,1.59E2,1.34E2,2.08E2,3.9E1,1.44E2,1.86E2,1.53E2,1.08E2,1.37E2,8E1,1.88E2,4.66E2,5.53E2,6.24E2,1.46E2,2.12E2,9.7E1,4.35E2,4.1E1,8.6E1,8E0,3.8E1,1.01E2,8.9E1,2E0,1.7E1,1.1E1,4.56E2,3E0,1E2,1E0,9.2E1,2.22E2,1.28E2,3.1E1,4.9E1,8.5E1,4.8E1,1.6E2,5E0,3.4E1,1.15E2,2.9E1,3E0,1.83E2,6.1E1,9.2E1,3.6E1,7.2E1,7.8E1,5.9E1,7.2E1,8E0,6.8E1,1.2E2,2.43E2,2.23E2,5.17E2,3.6E1,5.61E2,6.3E1,3.9E1,1.07E2,5.5E1,1.57E2,9E0,8.8E1,1.11E2,3.24E2,1.2E1,2.9E1,1.2E1,7.4E1],"tree_param":{"num_deleted":"0","num_feature":"120","num_nodes":"109","size_leaf_vector":"1"}},{"base_weights":[1.4451951E-4,-1.1262677E-1,1.4497119E-1,-1.3916971E-1,-3.0809468E-2,1.12086095E-1,2.3998685E-1,-1.5125431E-1,-1.04527436E-1,-7.145892E-2,1.7829938E-2,5.7945825E-2,1.3991784E-1,1.8992713E-1,2.9463407E-1,-7.621731E-3,-1.313887E-1,-1.1629277E-1,-6.653221E-2,-8.8018835E-2,-5.387127E-2,-6.4227646E-3,3.676739E-2,9.849983E-3,8.693139E-2,1.2286203E-1,1.796959E-1,1.1680805E-1,2.1453422E-1,3.3439696E-1,2.357255E-1,-6.6370554E-3,-5.1883347E-2,-1.1884383E-1,-9.924975E-2,-7.851546E-2,-3.859345E-2,-9.460692E-2,-6.9993146E-2,-6.502456E-2,-3.6660343E-2,-2.0735947E-2,1.0790141E-2,1.861777E-2,6.0752384E-2,-2.1767734E-2,4.7030788E-2,6.46427E-2,1.1091614E-1,1.3754451E-1,9.488886E-2,1.9904934E-1,1.4210156E-1,4.436879E-2,1.4420187E-1,1.8980761E-1,2.6058725E-1,3.028797E-1,3.8180643E-1,2.4460426E-1,1.5369087E-1,-3.207848E-3,-3.7656314E-4,-6.2043886E-3,-5.56272E-3,-4.9941256E-3,-1.0891792E-3,-4.649175E-3,-3.0789957E-3,-2.270784E-3,1.6324992E-3,-4.1661053E-3,-5.210548E-3,-3.9923727E-3,-2.5125386E-3,-3.8895458E-3,-2.3243781E-3,-2.8351943E-3,-1.0647475E-3,-7.0557994E-4,-2.2632647E-3,-8.820559E-4,1.2981362E-3,5.3113344E-4,3.184661E-3,9.027238E-3,2.8517214E-3,-1.6157851E-3,1.269475E-3,1.5129304E-3,3.5624893E-3,2.9786823E-3,5.8685644E-3,5.2546686E-3,9.022505E-3,5.336758E-3,7.3958836E-3,5.33368E-3,3.38847E-3,1.0632807E-2,7.0756003E-3,7.947395E-3,5.0003575E-3,-1.3463965E-3,2.7565684E-3,5.803568E-3,9.165328E-3,1.1241123E-2,8.376698E-3,1.3153413E-2,4.055034E-3,8.322107E-3,1.5627453E-2,5.4977755E-3,1.9179275E-2,9.831402E-3,1.2962855E-2,8.535289E-3,3.0213993E-4],"categories":[],"categories_nodes":[],"categories_segments":[],"categories_sizes":[],"default_left":[0,0,0,0,0,0,0,0,0,0,0,0,0,0,0,0,0,0,0,0,0,0,0,0,0,0,0,0,0,0,0,0,0,0,0,0,0,0,0,0,0,0,0,0,0,0,0,0,0,0,0,0,0,0,0,0,0,0,0,0,0,0,0,0,0,0,0,0,0,0,0,0,0,0,0,0,0,0,0,0,0,0,0,0,0,0,0,0,0,0,0,0,0,0,0,0,0,0,0,0,0,0,0,0,0,0,0,0,0,0,0,0,0,0,0,0,0,0,0],"id":7,"left_children":[1,3,5,7,9,11,13,15,17,19,21,23,25,27,29,-1,31,33,35,37,39,41,43,45,47,49,51,53,55,57,59,-1,61,63,65,67,69,71,73,75,77,79,81,83,85,87,89,91,93,95,97,99,101,103,105,107,109,111,113,115,117,-1,-1,-1,-1,-1,-1,-1,-1,-1,-1,-1,-1,-1,-1,-1,-1,-1,-1,-1,-1,-1,-1,-1,-1,-1,-1,-1,-1,-1,-1,-1,-1,-1,-1,-1,-1,-1,-1,-1,-1,-1,-1,-1,-1,-1,-1,-1,-1,-1,-1,-1,-1,-1,-1,-1,-1,-1,-1],"loss_changes":[1.2389677E2,9.257893E0,1.0349892E1,1.3322067E0,2.0693889E0,3.712225E0,2.2775269E0,3.5892487E-2,3.659773E-1,1.6127062E-1,2.1931483E-1,1.1701756E0,1.0837898E0,7.8100395E-1,8.721771E-1,0E0,8.27384E-3,1.5899658E-2,6.392932E-2,2.8054476E-2,5.1172554E-2,5.1961757E-2,1.15534276E-1,3.736801E-1,2.7295446E-1,4.5680618E-1,3.2604694E-1,2.2180653E-1,3.308754E-1,2.4297142E-1,8.40435E-2,0E0,1.6942574E-3,8.04472E-3,2.1867156E-3,2.8332412E-2,3.161724E-2,1.418519E-2,1.1940479E-2,3.61408E-2,3.328593E-2,1.8047698E-2,4.187007E-2,5.4822356E-2,4.0921837E-2,8.637551E-2,5.7150066E-2,6.624353E-2,8.2660675E-2,2.2326565E-1,1.19650364E-1,2.1965218E-1,1.0394788E-1,2.6806675E-2,7.002628E-2,1.3469458E-1,2.943039E-2,1.4454842E-1,2.316475E-3,5.3768158E-2,4.6700567E-2,0E0,0E0,0E0,0E0,0E0,0E0,0E0,0E0,0E0,0E0,0E0,0E0,0E0,0E0,0E0,0E0,0E0,0E0,0E0,0E0,0E0,0E0,0E0,0E0,0E0,0E0,0E0,0E0,0E0,0E0,0E0,0E0,0E0,0E0,0E0,0E0,0E0,0E0,0E0,0E0,0E0,0E0,0E0,0E0,0E0,0E0,0E0,0E0,0E0,0E0,0E0,0E0,0E0,0E0,0E0,0E0,0E0,0E0],"parents":[2147483647,0,0,1,1,2,2,3,3,4,4,5,5,6,6,7,7,8,8,9,9,10,10,11,11,12,12,13,13,14,14,16,16,17,17,18,18,19,19,20,20,21,21,22,22,23,23,24,24,25,25,26,26,27,27,28,28,29,29,30,30,32,32,33,33,34,34,35,35,36,36,37,37,38,38,39,39,40,40,41,41,42,42,43,43,44,44,45,45,46,46,47,47,48,48,49,49,50,50,51,51,52,52,53,53,54,54,55,55,56,56,57,57,58,58,59,59,60,60],"right_children":[2,4,6,8,10,12,14,16,18,20,22,24,26,28,30,-1,32,34,36,38,40,42,44,46,48,50,52,54,56,58,60,-1,62,64,66,68,70,72,74,76,78,80,82,84,86,88,90,92,94,96,98,100,102,104,106,108,110,112,114,116,118,-1,-1,-1,-1,-1,-1,-1,-1,-1,-1,-1,-1,-1,-1,-1,-1,-1,-1,-1,-1,-1,-1,-1,-1,-1,-1,-1,-1,-1,-1,-1,-1,-1,-1,-1,-1,-1,-1,-1,-1,-1,-1,-1,-1,-1,-1,-1,-1,-1,-1,-1,-1,-1,-1,-1,-1,-1,-1],"split_conditions":[2.2202155E-1,1.0407648E-1,4.976526E-1,3.1027857E-2,3.9130434E-1,3.42723E-1,8.695652E-1,1.173709E-2,3.478261E-1,9.389672E-2,1.8075117E-1,3.9130434E-1,4.71831E-1,1.7391305E-1,5E-1,-7.621731E-3,4.483568E-1,2.793427E-1,7.981221E-2,1.713615E-1,3.043478E-1,3.629099E-1,3.1220657E-1,1.8544601E-1,3.1924108E-1,8.333333E-1,8.333333E-1,1.3145539E-1,6.150235E-1,7.0187795E-1,4.6244133E-1,-6.6370554E-3,5.399061E-2,6.607621E-2,7.256554E-1,1.8075117E-1,1.23949125E-1,3.914575E-1,6.666667E-1,1.9014084E-1,3.3860394E-1,1.5380384E-1,1.2910798E-1,2.535211E-1,1.8779343E-2,3.9201877E-1,4.5508504E-1,9.130435E-1,9.5652175E-1,3.4741783E-1,1E0,3.0985916E-1,1E0,3.802817E-1,5.416275E-1,5.7411067E-2,5.8517003E-1,3.0985916E-1,5.046948E-1,3.6619717E-1,4.6091154E-1,-3.207848E-3,-3.7656314E-4,-6.2043886E-3,-5.56272E-3,-4.9941256E-3,-1.0891792E-3,-4.649175E-3,-3.0789957E-3,-2.270784E-3,1.6324992E-3,-4.1661053E-3,-5.210548E-3,-3.9923727E-3,-2.5125386E-3,-3.8895458E-3,-2.3243781E-3,-2.8351943E-3,-1.0647475E-3,-7.0557994E-4,-2.2632647E-3,-8.820559E-4,1.2981362E-3,5.3113344E-4,3.184661E-3,9.027238E-3,2.8517214E-3,-1.6157851E-3,1.269475E-3,1.5129304E-3,3.5624893E-3,2.9786823E-3,5.8685644E-3,5.2546686E-3,9.022505E-3,5.336758E-3,7.3958836E-3,5.33368E-3,3.38847E-3,1.0632807E-2,7.0756003E-3,7.947395E-3,5.0003575E-3,-1.3463965E-3,2.7565684E-3,5.803568E-3,9.165328E-3,1.1241123E-2,8.376698E-3,1.3153413E-2,4.055034E-3,8.322107E-3,1.5627453E-2,5.4977755E-3,1.9179275E-2,9.831402E-3,1.2962855E-2,8.535289E-3,3.0213993E-4],"split_indices":[116,116,115,116,7,0,22,110,7,0,115,2,0,7,3,0,40,15,115,115,2,66,5,0,116,53,38,5,115,0,85,0,0,116,51,5,111,81,8,115,66,86,115,115,35,115,81,27,7,115,28,50,28,105,96,31,81,5,5,100,81,0,0,0,0,0,0,0,0,0,0,0,0,0,0,0,0,0,0,0,0,0,0,0,0,0,0,0,0,0,0,0,0,0,0,0,0,0,0,0,0,0,0,0,0,0,0,0,0,0,0,0,0,0,0,0,0,0,0],"split_type":[0,0,0,0,0,0,0,0,0,0,0,0,0,0,0,0,0,0,0,0,0,0,0,0,0,0,0,0,0,0,0,0,0,0,0,0,0,0,0,0,0,0,0,0,0,0,0,0,0,0,0,0,0,0,0,0,0,0,0,0,0,0,0,0,0,0,0,0,0,0,0,0,0,0,0,0,0,0,0,0,0,0,0,0,0,0,0,0,0,0,0,0,0,0,0,0,0,0,0,0,0,0,0,0,0,0,0,0,0,0,0,0,0,0,0,0,0,0,0],"sum_hessian":[7.584E3,4.264E3,3.32E3,3.219E3,1.045E3,2.468E3,8.52E2,2.384E3,8.35E2,5.69E2,4.76E2,8.39E2,1.629E3,4.47E2,4.05E2,2.244E3,1.4E2,6.36E2,1.99E2,2.91E2,2.78E2,2.09E2,2.67E2,3.16E2,5.23E2,1.143E3,4.86E2,1.14E2,3.33E2,2.39E2,1.66E2,1.37E2,3E0,5.48E2,8.8E1,1.38E2,6.1E1,2.1E2,8.1E1,1.67E2,1.11E2,1.14E2,9.5E1,1.53E2,1.14E2,1.71E2,1.45E2,2.73E2,2.5E2,7.47E2,3.96E2,3.18E2,1.68E2,3.2E1,8.2E1,2.2E2,1.13E2,1.48E2,9.1E1,1.48E2,1.8E1,2E0,1E0,3.15E2,2.33E2,8.7E1,1E0,7.2E1,6.6E1,5.6E1,5E0,1.01E2,1.09E2,5.2E1,2.9E1,9.7E1,7E1,4.7E1,6.4E1,9.1E1,2.3E1,3.3E1,6.2E1,1.31E2,2.2E1,2E0,1.12E2,1.4E2,3.1E1,8.7E1,5.8E1,2.51E2,2.2E1,2.33E2,1.7E1,1.91E2,5.56E2,2.74E2,1.22E2,2.55E2,6.3E1,1.18E2,5E1,4E0,2.8E1,5E1,3.2E1,8.2E1,1.38E2,1.11E2,2E0,1.1E1,1.37E2,1E0,9E1,3.8E1,1.1E2,1.6E1,2E0],"tree_param":{"num_deleted":"0","num_feature":"120","num_nodes":"119","size_leaf_vector":"1"}},{"base_weights":[1.5791596E-4,-1.0916914E-1,1.3511801E-1,-1.3794047E-1,-4.6969406E-2,8.709476E-2,1.9653186E-1,-1.4467083E-1,-1.1266566E-1,-7.928722E-2,6.9879405E-3,2.0902373E-2,1.09036446E-1,1.5930292E-1,2.6147404E-1,-7.2364197E-3,-3.6714898E-4,-1.17777385E-1,-7.751997E-2,-8.8526286E-2,-4.6138585E-2,-2.7946472E-2,2.2856105E-2,-1.136115E-2,5.2409798E-2,8.2236655E-2,1.258529E-1,9.426549E-2,1.7799683E-1,3.2098764E-1,2.1808307E-1,-6.1122063E-3,-1.07651874E-1,-6.2202256E-2,-9.2028275E-2,-9.603719E-2,-6.4625144E-2,-3.3256255E-2,-7.551462E-2,-3.101028E-2,3.261026E-2,6.233196E-3,4.4977583E-2,-3.1338703E-2,2.4497073E-2,4.498763E-2,1.20803066E-1,9.228544E-2,4.5431215E-2,1.1834454E-1,1.6853054E-1,4.4789184E-2,1.2715748E-1,1.6581255E-1,2.430214E-1,2.6106015E-1,3.4731048E-1,2.539817E-1,1.8990463E-1,-5.4190485E-3,-1.5469346E-3,-3.6556926E-3,-1.6118431E-3,-4.656427E-3,-1.2554597E-3,-4.2324215E-3,-5.0214236E-3,-3.987874E-3,-2.5172394E-3,-2.6857934E-3,-8.6619466E-4,-4.284862E-3,-2.8810778E-3,-2.110388E-3,-5.83038E-4,3.1411275E-3,-6.653834E-4,-1.6160482E-4,1.1177751E-3,3.059847E-4,2.6254929E-3,-2.6078327E-3,-8.597428E-4,-1.3686068E-3,2.1522304E-3,1.9810987E-3,5.1351455E-3,7.546416E-3,3.3273704E-3,4.3213586E-3,7.3987613E-3,-1.1841268E-3,3.6917143E-3,5.6146705E-3,8.346803E-3,9.401075E-3,6.8026567E-3,1.190358E-3,3.9200988E-3,5.60061E-3,9.113272E-3,7.816644E-3,1.1198709E-2,1.3015375E-2,9.031588E-3,1.3824123E-2,8.430615E-3,1.741342E-2,5.0186277E-3,5.431305E-3,1.2878175E-2,9.884469E-3,4.8634335E-3],"categories":[],"categories_nodes":[],"categories_segments":[],"categories_sizes":[],"default_left":[0,0,0,0,0,0,0,0,0,0,0,0,0,0,0,0,0,0,0,0,0,0,0,0,0,0,0,0,0,0,0,0,0,0,0,0,0,0,0,0,0,0,0,0,0,0,0,0,0,0,0,0,0,0,0,0,0,0,0,0,0,0,0,0,0,0,0,0,0,0,0,0,0,0,0,0,0,0,0,0,0,0,0,0,0,0,0,0,0,0,0,0,0,0,0,0,0,0,0,0,0,0,0,0,0,0,0,0,0,0,0,0,0],"id":8,"left_children":[1,3,5,7,9,11,13,15,17,19,21,23,25,27,29,-1,-1,31,33,35,37,39,41,43,45,47,49,51,53,55,57,-1,59,61,63,65,67,69,71,73,75,77,79,81,83,85,87,89,91,93,95,97,99,101,103,105,107,109,111,-1,-1,-1,-1,-1,-1,-1,-1,-1,-1,-1,-1,-1,-1,-1,-1,-1,-1,-1,-1,-1,-1,-1,-1,-1,-1,-1,-1,-1,-1,-1,-1,-1,-1,-1,-1,-1,-1,-1,-1,-1,-1,-1,-1,-1,-1,-1,-1,-1,-1,-1,-1,-1,-1],"loss_changes":[1.1192983E2,7.4936066E0,9.995731E0,4.710617E-1,2.314555E0,2.767396E0,3.558342E0,1.6796112E-2,9.992075E-2,2.501135E-1,2.7670252E-1,4.8446864E-1,6.350193E-1,1.1370182E0,1.3270531E0,0E0,0E0,1.0720253E-2,1.2054384E-2,1.1012173E-1,6.6741735E-2,2.995459E-2,1.2584874E-1,1.6982856E-1,1.16903365E-1,2.0107436E-1,2.6140022E-1,3.4256256E-1,5.4282E-1,2.6583672E-1,2.714224E-1,0E0,6.1553717E-3,1.1375785E-2,5.3313375E-4,1.605463E-2,3.0127645E-2,4.111956E-2,5.0829053E-3,3.1791046E-2,1.193431E-2,3.0134916E-2,4.2703807E-2,4.385896E-2,8.2952134E-2,6.3750744E-2,2.754882E-2,1.2912774E-1,2.3927672E-1,2.0177937E-1,5.6078196E-2,5.9491485E-2,8.6416245E-2,3.084793E-1,7.592583E-2,5.746174E-2,1.4724731E-3,4.282856E-2,1.1129904E-1,0E0,0E0,0E0,0E0,0E0,0E0,0E0,0E0,0E0,0E0,0E0,0E0,0E0,0E0,0E0,0E0,0E0,0E0,0E0,0E0,0E0,0E0,0E0,0E0,0E0,0E0,0E0,0E0,0E0,0E0,0E0,0E0,0E0,0E0,0E0,0E0,0E0,0E0,0E0,0E0,0E0,0E0,0E0,0E0,0E0,0E0,0E0,0E0,0E0,0E0,0E0,0E0,0E0,0E0],"parents":[2147483647,0,0,1,1,2,2,3,3,4,4,5,5,6,6,7,7,8,8,9,9,10,10,11,11,12,12,13,13,14,14,17,17,18,18,19,19,20,20,21,21,22,22,23,23,24,24,25,25,26,26,27,27,28,28,29,29,30,30,32,32,33,33,34,34,35,35,36,36,37,37,38,38,39,39,40,40,41,41,42,42,43,43,44,44,45,45,46,46,47,47,48,48,49,49,50,50,51,51,52,52,53,53,54,54,55,55,56,56,57,57,58,58],"right_children":[2,4,6,8,10,12,14,16,18,20,22,24,26,28,30,-1,-1,32,34,36,38,40,42,44,46,48,50,52,54,56,58,-1,60,62,64,66,68,70,72,74,76,78,80,82,84,86,88,90,92,94,96,98,100,102,104,106,108,110,112,-1,-1,-1,-1,-1,-1,-1,-1,-1,-1,-1,-1,-1,-1,-1,-1,-1,-1,-1,-1,-1,-1,-1,-1,-1,-1,-1,-1,-1,-1,-1,-1,-1,-1,-1,-1,-1,-1,-1,-1,-1,-1,-1,-1,-1,-1,-1,-1,-1,-1,-1,-1,-1,-1],"split_conditions":[2.3239437E-1,7.089187E-2,4.2488262E-1,1.3359897E-2,4.347826E-1,2.624226E-1,5.2816904E-1,6.3615024E-1,1.9953051E-1,3.043478E-1,1.3615024E-1,2.6086956E-1,3.4037557E-1,1.7391305E-1,7.5270735E-2,-7.2364197E-3,-3.6714898E-4,1.0798122E-1,2.1902606E-1,1.5962441E-1,8.333333E-1,1.1502347E-1,2.6760563E-1,1.713615E-1,4.8826292E-1,1E0,9.5652175E-1,2.6995304E-1,6.00939E-1,5.2537566E-1,5E-1,-6.1122063E-3,1.5492958E-1,4.5588782E-1,6.079812E-1,8.2608694E-1,8.333333E-1,1.4553991E-1,1.605998E-1,5.3521127E-1,1.9798027E-1,4.357385E-1,3.0450433E-1,6.1032865E-2,2.667873E-1,9.130435E-1,1.4788732E-1,4.9061033E-1,2.1596244E-1,4.765258E-1,8.333333E-1,1.2441315E-1,6.485383E-1,9.5652175E-1,4.3896714E-1,3.717232E-1,4.976526E-1,3.943662E-1,1E0,-5.4190485E-3,-1.5469346E-3,-3.6556926E-3,-1.6118431E-3,-4.656427E-3,-1.2554597E-3,-4.2324215E-3,-5.0214236E-3,-3.987874E-3,-2.5172394E-3,-2.6857934E-3,-8.6619466E-4,-4.284862E-3,-2.8810778E-3,-2.110388E-3,-5.83038E-4,3.1411275E-3,-6.653834E-4,-1.6160482E-4,1.1177751E-3,3.059847E-4,2.6254929E-3,-2.6078327E-3,-8.597428E-4,-1.3686068E-3,2.1522304E-3,1.9810987E-3,5.1351455E-3,7.546416E-3,3.3273704E-3,4.3213586E-3,7.3987613E-3,-1.1841268E-3,3.6917143E-3,5.6146705E-3,8.346803E-3,9.401075E-3,6.8026567E-3,1.190358E-3,3.9200988E-3,5.60061E-3,9.113272E-3,7.816644E-3,1.1198709E-2,1.3015375E-2,9.031588E-3,1.3824123E-2,8.430615E-3,1.741342E-2,5.0186277E-3,5.431305E-3,1.2878175E-2,9.884469E-3,4.8634335E-3],"split_indices":[115,116,115,116,12,1,0,90,10,2,115,2,115,7,46,0,0,10,86,115,88,105,0,0,105,13,32,0,115,116,18,0,110,46,45,92,118,0,106,45,111,41,41,5,116,27,10,0,20,100,38,5,96,32,85,76,80,110,17,0,0,0,0,0,0,0,0,0,0,0,0,0,0,0,0,0,0,0,0,0,0,0,0,0,0,0,0,0,0,0,0,0,0,0,0,0,0,0,0,0,0,0,0,0,0,0,0,0,0,0,0,0,0],"split_type":[0,0,0,0,0,0,0,0,0,0,0,0,0,0,0,0,0,0,0,0,0,0,0,0,0,0,0,0,0,0,0,0,0,0,0,0,0,0,0,0,0,0,0,0,0,0,0,0,0,0,0,0,0,0,0,0,0,0,0,0,0,0,0,0,0,0,0,0,0,0,0,0,0,0,0,0,0,0,0,0,0,0,0,0,0,0,0,0,0,0,0,0,0,0,0,0,0,0,0,0,0,0,0,0,0,0,0,0,0,0,0,0,0],"sum_hessian":[7.584E3,4.19E3,3.394E3,2.864E3,1.326E3,1.906E3,1.488E3,2.258E3,6.06E2,8.29E2,4.97E2,4.75E2,1.431E3,9.48E2,5.4E2,2.257E3,1E0,5.27E2,7.9E1,6.47E2,1.82E2,1.55E2,3.42E2,2.35E2,2.4E2,5.54E2,8.77E2,2.13E2,7.35E2,2.25E2,3.15E2,3.58E2,1.69E2,4.1E1,3.8E1,4.9E2,1.57E2,1.28E2,5.4E1,1.48E2,7E0,1.96E2,1.46E2,1.51E2,8.4E1,2.18E2,2.2E1,4.34E2,1.2E2,7.49E2,1.28E2,8.6E1,1.27E2,6.22E2,1.13E2,7.2E1,1.53E2,1.35E2,1.8E2,1.67E2,2E0,2.9E1,1.2E1,3.7E1,1E0,1.42E2,3.48E2,7.4E1,8.3E1,5.5E1,7.3E1,3.2E1,2.2E1,9.3E1,5.5E1,4E0,3E0,1.24E2,7.2E1,2.4E1,1.22E2,6E1,9.1E1,2.2E1,6.2E1,2.01E2,1.7E1,1.3E1,9E0,3.95E2,3.9E1,3.5E1,8.5E1,6.69E2,8E1,7.7E1,5.1E1,5.4E1,3.2E1,1.02E2,2.5E1,5.38E2,8.4E1,8.6E1,2.7E1,6E1,1.2E1,1.52E2,1E0,4E0,1.31E2,1.65E2,1.5E1],"tree_param":{"num_deleted":"0","num_feature":"120","num_nodes":"113","size_leaf_vector":"1"}},{"base_weights":[1.6896051E-4,-1.01695E-1,1.3098788E-1,-1.2566346E-1,-2.7813427E-2,1.01109244E-1,2.1731773E-1,-1.361783E-1,-9.3418606E-2,-6.448259E-2,1.6063377E-2,5.2163202E-2,1.2627093E-1,1.7183837E-1,2.669666E-1,-6.8792044E-3,-1.18089385E-1,-1.0428367E-1,-5.922177E-2,-7.945041E-2,-4.8586223E-2,-1.1032363E-2,3.0033352E-2,8.838042E-3,7.827372E-2,1.1012955E-1,1.6110295E-1,2.1430217E-1,1.3672924E-1,3.0289564E-1,2.1373345E-1,-1.1846938E-1,-1.2327532E-3,-9.29613E-2,-1.0738856E-1,-8.4688134E-2,-4.8008118E-2,-8.466441E-2,-6.067706E-2,-5.855558E-2,-3.3198383E-2,-2.7276657E-3,-3.0872209E-2,1.52754765E-2,5.5919822E-2,-1.8320348E-2,4.4197984E-2,6.58784E-2,1.1385804E-1,1.2329377E-1,8.497923E-2,1.7997688E-1,1.2508146E-1,1.6598096E-1,2.3466142E-1,4.431249E-2,1.5070803E-1,2.7383044E-1,3.4667626E-1,2.2196566E-1,1.379265E-1,-4.3661776E-3,-6.0480176E-3,-4.6681813E-3,-9.56139E-4,-5.625932E-3,-5.046503E-3,-4.3664607E-3,-1.3600588E-3,-2.593709E-3,1.0408208E-3,-4.415585E-3,-3.0735265E-3,-1.9045997E-3,-3.5079774E-3,-3.554678E-3,-2.122129E-3,-4.9934234E-4,-2.249143E-3,-1.3335374E-3,4.6394227E-4,-1.1299896E-3,-3.8048201E-3,3.3546882E-4,2.8702377E-3,8.517221E-3,2.4554098E-3,-1.5788743E-3,7.021281E-4,1.4209179E-3,3.3398196E-3,3.015683E-3,6.3211494E-3,4.56481E-3,7.0923874E-3,7.480731E-3,5.641058E-3,4.78278E-3,3.0213585E-3,8.455392E-3,1.1998272E-2,6.8538934E-3,3.832275E-3,6.5474035E-3,1.0392077E-2,1.0546687E-2,1.3119365E-2,-1.3674526E-3,2.7389496E-3,-2.3695694E-3,7.5927596E-3,7.435508E-3,1.413631E-2,1.778797E-2,1.1830932E-2,1.0365396E-2,1.3773491E-2,7.7081784E-3,-2.949933E-6],"categories":[],"categories_nodes":[],"categories_segments":[],"categories_sizes":[],"default_left":[0,0,0,0,0,0,0,0,0,0,0,0,0,0,0,0,0,0,0,0,0,0,0,0,0,0,0,0,0,0,0,0,0,0,0,0,0,0,0,0,0,0,0,0,0,0,0,0,0,0,0,0,0,0,0,0,0,0,0,0,0,0,0,0,0,0,0,0,0,0,0,0,0,0,0,0,0,0,0,0,0,0,0,0,0,0,0,0,0,0,0,0,0,0,0,0,0,0,0,0,0,0,0,0,0,0,0,0,0,0,0,0,0,0,0,0,0,0,0],"id":9,"left_children":[1,3,5,7,9,11,13,15,17,19,21,23,25,27,29,-1,31,33,35,37,39,41,43,45,47,49,51,53,55,57,59,61,-1,63,65,67,69,71,73,75,77,79,81,83,85,87,89,91,93,95,97,99,101,103,105,107,109,111,113,115,117,-1,-1,-1,-1,-1,-1,-1,-1,-1,-1,-1,-1,-1,-1,-1,-1,-1,-1,-1,-1,-1,-1,-1,-1,-1,-1,-1,-1,-1,-1,-1,-1,-1,-1,-1,-1,-1,-1,-1,-1,-1,-1,-1,-1,-1,-1,-1,-1,-1,-1,-1,-1,-1,-1,-1,-1,-1,-1],"loss_changes":[1.01089005E2,7.5490837E0,8.544281E0,1.0790176E0,1.683972E0,3.0341473E0,1.8801956E0,4.544449E-2,2.8920698E-1,1.3176203E-1,1.8088865E-1,9.495518E-1,8.987045E-1,6.38607E-1,7.1178246E-1,0E0,3.5409927E-3,1.1180401E-2,5.1335037E-2,2.344513E-2,4.08566E-2,2.677231E-2,1.1948502E-1,3.0523086E-1,2.236247E-1,3.5934353E-1,3.2693958E-1,1.5879059E-1,3.1370687E-1,2.1046829E-1,7.360315E-2,3.4797192E-3,0E0,2.2845268E-3,4.0826797E-3,6.4305663E-3,3.7532777E-2,1.3689876E-2,1.1676371E-2,3.092271E-2,3.018678E-2,3.3594325E-2,1.623768E-2,7.251334E-2,8.0488324E-2,7.767056E-2,4.7311813E-2,1.2410867E-1,7.167065E-2,1.8461895E-1,9.5662594E-2,1.7784595E-1,9.4084024E-2,6.517291E-2,3.609848E-2,2.699972E-2,5.605507E-2,1.2379837E-1,7.7905655E-3,5.9746265E-2,4.257819E-2,0E0,0E0,0E0,0E0,0E0,0E0,0E0,0E0,0E0,0E0,0E0,0E0,0E0,0E0,0E0,0E0,0E0,0E0,0E0,0E0,0E0,0E0,0E0,0E0,0E0,0E0,0E0,0E0,0E0,0E0,0E0,0E0,0E0,0E0,0E0,0E0,0E0,0E0,0E0,0E0,0E0,0E0,0E0,0E0,0E0,0E0,0E0,0E0,0E0,0E0,0E0,0E0,0E0,0E0,0E0,0E0,0E0,0E0],"parents":[2147483647,0,0,1,1,2,2,3,3,4,4,5,5,6,6,7,7,8,8,9,9,10,10,11,11,12,12,13,13,14,14,16,16,17,17,18,18,19,19,20,20,21,21,22,22,23,23,24,24,25,25,26,26,27,27,28,28,29,29,30,30,31,31,33,33,34,34,35,35,36,36,37,37,38,38,39,39,40,40,41,41,42,42,43,43,44,44,45,45,46,46,47,47,48,48,49,49,50,50,51,51,52,52,53,53,54,54,55,55,56,56,57,57,58,58,59,59,60,60],"right_children":[2,4,6,8,10,12,14,16,18,20,22,24,26,28,30,-1,32,34,36,38,40,42,44,46,48,50,52,54,56,58,60,62,-1,64,66,68,70,72,74,76,78,80,82,84,86,88,90,92,94,96,98,100,102,104,106,108,110,112,114,116,118,-1,-1,-1,-1,-1,-1,-1,-1,-1,-1,-1,-1,-1,-1,-1,-1,-1,-1,-1,-1,-1,-1,-1,-1,-1,-1,-1,-1,-1,-1,-1,-1,-1,-1,-1,-1,-1,-1,-1,-1,-1,-1,-1,-1,-1,-1,-1,-1,-1,-1,-1,-1,-1,-1,-1,-1,-1,-1],"split_conditions":[2.2202155E-1,1.0407648E-1,4.976526E-1,3.514203E-2,3.9130434E-1,3.42723E-1,8.695652E-1,1.173709E-2,3.478261E-1,9.389672E-2,1.6431925E-1,3.9130434E-1,4.6713614E-1,6.338028E-2,5E-1,-6.8792044E-3,4.5305166E-1,8.2608694E-1,9.859155E-2,9.5652175E-1,3.043478E-1,8.9201875E-2,2.370892E-1,1.9483568E-1,3.7420675E-1,8.333333E-1,8.333333E-1,5.164319E-1,1.3145539E-1,7.0187795E-1,4.6244133E-1,3.514203E-2,-1.2327532E-3,7.256554E-1,1.5035848E-1,3.568075E-1,1.23949125E-1,1.9215159E-1,3.1650156E-1,2.816079E-1,5E-1,4.529076E-2,4.6713614E-1,2.5586855E-1,2.550199E-2,3.6150235E-1,4.5508504E-1,5.140845E-1,4.0375587E-1,7.746479E-2,1E0,6.2441313E-1,1E0,5.606789E-1,4.5588782E-1,3.802817E-1,2.6525822E-1,4.5319405E-1,9.02079E-2,1E0,4.6091154E-1,-4.3661776E-3,-6.0480176E-3,-4.6681813E-3,-9.56139E-4,-5.625932E-3,-5.046503E-3,-4.3664607E-3,-1.3600588E-3,-2.593709E-3,1.0408208E-3,-4.415585E-3,-3.0735265E-3,-1.9045997E-3,-3.5079774E-3,-3.554678E-3,-2.122129E-3,-4.9934234E-4,-2.249143E-3,-1.3335374E-3,4.6394227E-4,-1.1299896E-3,-3.8048201E-3,3.3546882E-4,2.8702377E-3,8.517221E-3,2.4554098E-3,-1.5788743E-3,7.021281E-4,1.4209179E-3,3.3398196E-3,3.015683E-3,6.3211494E-3,4.56481E-3,7.0923874E-3,7.480731E-3,5.641058E-3,4.78278E-3,3.0213585E-3,8.455392E-3,1.1998272E-2,6.8538934E-3,3.832275E-3,6.5474035E-3,1.0392077E-2,1.0546687E-2,1.3119365E-2,-1.3674526E-3,2.7389496E-3,-2.3695694E-3,7.5927596E-3,7.435508E-3,1.413631E-2,1.778797E-2,1.1830932E-2,1.0365396E-2,1.3773491E-2,7.7081784E-3,-2.949933E-6],"split_indices":[116,116,115,116,7,0,22,110,7,0,115,2,0,40,3,0,35,92,0,97,2,100,70,0,116,53,38,100,5,0,85,96,0,51,106,15,111,116,86,106,3,101,35,115,31,115,81,100,115,60,28,0,13,111,1,105,105,116,46,28,81,0,0,0,0,0,0,0,0,0,0,0,0,0,0,0,0,0,0,0,0,0,0,0,0,0,0,0,0,0,0,0,0,0,0,0,0,0,0,0,0,0,0,0,0,0,0,0,0,0,0,0,0,0,0,0,0,0,0],"split_type":[0,0,0,0,0,0,0,0,0,0,0,0,0,0,0,0,0,0,0,0,0,0,0,0,0,0,0,0,0,0,0,0,0,0,0,0,0,0,0,0,0,0,0,0,0,0,0,0,0,0,0,0,0,0,0,0,0,0,0,0,0,0,0,0,0,0,0,0,0,0,0,0,0,0,0,0,0,0,0,0,0,0,0,0,0,0,0,0,0,0,0,0,0,0,0,0,0,0,0,0,0,0,0,0,0,0,0,0,0,0,0,0,0,0,0,0,0,0,0],"sum_hessian":[7.584E3,4.264E3,3.32E3,3.219E3,1.045E3,2.468E3,8.52E2,2.425E3,7.94E2,5.69E2,4.76E2,8.39E2,1.629E3,4.47E2,4.05E2,2.244E3,1.81E2,6.01E2,1.93E2,2.91E2,2.78E2,1.62E2,3.14E2,3.16E2,5.23E2,1.116E3,5.13E2,2E2,2.47E2,2.39E2,1.66E2,1.8E2,1E0,1.36E2,4.65E2,5.7E1,1.36E2,2.25E2,6.6E1,1.67E2,1.11E2,1.15E2,4.7E1,2.01E2,1.13E2,1.79E2,1.37E2,3.9E2,1.33E2,7.3E2,3.86E2,3.34E2,1.79E2,6.2E1,1.38E2,3.3E1,2.14E2,1.48E2,9.1E1,1.48E2,1.8E1,1.6E1,1.64E2,1.35E2,1E0,2.5E2,2.15E2,5.4E1,3E0,1.29E2,7E0,1.92E2,3.3E1,2.1E1,4.5E1,9.2E1,7.5E1,3.8E1,7.3E1,3.8E1,7.7E1,4.1E1,6E0,1.68E2,3.3E1,5E0,1.08E2,1.27E2,5.2E1,8.2E1,5.5E1,3.59E2,3.1E1,7.6E1,5.7E1,2.04E2,5.26E2,2.67E2,1.19E2,2.86E2,4.8E1,1.42E2,3.7E1,3.6E1,2.6E1,7.9E1,5.9E1,4E0,2.9E1,1E0,2.13E2,1.1E1,1.37E2,8.2E1,9E0,1.2E2,2.8E1,1.6E1,2E0],"tree_param":{"num_deleted":"0","num_feature":"120","num_nodes":"119","size_leaf_vector":"1"}},{"base_weights":[1.8056929E-4,-9.85876E-2,1.2210611E-1,-1.2484405E-1,-4.3118812E-2,7.851297E-2,1.7785496E-1,-1.3064085E-1,-1.027604E-1,-7.208487E-2,5.840084E-3,1.8708918E-2,9.8337136E-2,1.4415123E-1,2.3664792E-1,-6.5335827E-3,-1.5355529E-3,-1.06447466E-1,-6.739761E-2,-8.0339104E-2,-4.1906077E-2,-2.5635976E-2,2.0505767E-2,-8.21522E-3,4.955102E-2,7.3879115E-2,1.136855E-1,8.4563754E-2,1.6128106E-1,2.9476324E-1,1.9917543E-1,-5.506704E-3,-9.485283E-2,-5.1875412E-2,-8.273021E-2,-8.890078E-2,-6.253614E-2,-2.9927488E-2,-6.875128E-2,-6.1499372E-2,-2.0656817E-2,2.560199E-4,3.6242586E-2,-2.7517568E-2,2.9374575E-2,9.453797E-2,4.2301487E-2,8.306985E-2,4.022746E-2,1.0676975E-1,1.5301207E-1,3.939376E-2,1.1460458E-1,1.898065E-1,1.3826264E-1,2.6904738E-1,3.4235138E-1,2.3246488E-1,1.7113575E-1,-4.774473E-3,-2.0676963E-4,-3.030501E-3,-1.9618768E-4,-4.2006825E-3,-1.2019342E-3,-3.8532899E-3,-4.697663E-3,-3.7995658E-3,-2.4380006E-3,-2.440368E-3,-7.617797E-4,-3.6744375E-3,-1.9805038E-3,-3.2574541E-3,1.0488704E-4,-1.136089E-3,2.8132407E-3,-8.158852E-5,2.7852927E-3,6.170586E-4,2.2256712E-3,-2.259093E-3,-4.972051E-4,-6.328928E-4,2.585949E-3,5.6056394E-3,2.7766425E-4,1.8683113E-3,4.559897E-3,3.8859968E-3,6.6978666E-3,-1.1671002E-3,3.3185089E-3,5.056733E-3,7.603147E-3,8.665411E-3,6.1729914E-3,1.0312573E-3,3.4740518E-3,5.162274E-3,9.134975E-3,7.5622946E-3,1.0698537E-2,5.9458977E-3,7.933651E-3,1.3602795E-2,1.9984976E-3,1.7234063E-2,4.5397542E-3,1.2926831E-2,1.0049592E-2,8.938825E-3,4.2780223E-3],"categories":[],"categories_nodes":[],"categories_segments":[],"categories_sizes":[],"default_left":[0,0,0,0,0,0,0,0,0,0,0,0,0,0,0,0,0,0,0,0,0,0,0,0,0,0,0,0,0,0,0,0,0,0,0,0,0,0,0,0,0,0,0,0,0,0,0,0,0,0,0,0,0,0,0,0,0,0,0,0,0,0,0,0,0,0,0,0,0,0,0,0,0,0,0,0,0,0,0,0,0,0,0,0,0,0,0,0,0,0,0,0,0,0,0,0,0,0,0,0,0,0,0,0,0,0,0,0,0,0,0,0,0],"id":10,"left_children":[1,3,5,7,9,11,13,15,17,19,21,23,25,27,29,-1,-1,31,33,35,37,39,41,43,45,47,49,51,53,55,57,-1,59,61,63,65,67,69,71,73,75,77,79,81,83,85,87,89,91,93,95,97,99,101,103,105,107,109,111,-1,-1,-1,-1,-1,-1,-1,-1,-1,-1,-1,-1,-1,-1,-1,-1,-1,-1,-1,-1,-1,-1,-1,-1,-1,-1,-1,-1,-1,-1,-1,-1,-1,-1,-1,-1,-1,-1,-1,-1,-1,-1,-1,-1,-1,-1,-1,-1,-1,-1,-1,-1,-1,-1],"loss_changes":[9.135336E1,6.098446E0,8.236797E0,3.5064697E-1,1.9120817E0,2.259035E0,2.9164047E0,2.9067993E-3,7.053518E-2,2.07623E-1,2.3225789E-1,3.9567602E-1,5.2915955E-1,9.5502853E-1,1.1194382E0,0E0,0E0,1.2550831E-2,9.750098E-3,9.564972E-2,5.7110876E-2,2.7300738E-2,1.0929336E-1,1.8582901E-1,6.840271E-2,1.6831088E-1,2.2245502E-1,2.858714E-1,4.570217E-1,1.6488266E-1,2.701149E-1,0E0,7.517338E-3,1.3165034E-2,8.957088E-5,1.9428492E-2,3.68886E-2,3.5038546E-2,4.8202276E-3,4.5467764E-3,2.383376E-2,1.5897224E-2,3.7603825E-2,5.201216E-2,8.2364134E-2,4.6294093E-2,4.316643E-2,1.0801482E-1,2.0263647E-1,1.7604542E-1,5.5977106E-2,4.7695532E-2,8.0144644E-2,2.713995E-1,1.4340782E-1,8.630085E-2,9.730339E-3,7.029915E-2,1.0501385E-1,0E0,0E0,0E0,0E0,0E0,0E0,0E0,0E0,0E0,0E0,0E0,0E0,0E0,0E0,0E0,0E0,0E0,0E0,0E0,0E0,0E0,0E0,0E0,0E0,0E0,0E0,0E0,0E0,0E0,0E0,0E0,0E0,0E0,0E0,0E0,0E0,0E0,0E0,0E0,0E0,0E0,0E0,0E0,0E0,0E0,0E0,0E0,0E0,0E0,0E0,0E0,0E0,0E0,0E0],"parents":[2147483647,0,0,1,1,2,2,3,3,4,4,5,5,6,6,7,7,8,8,9,9,10,10,11,11,12,12,13,13,14,14,17,17,18,18,19,19,20,20,21,21,22,22,23,23,24,24,25,25,26,26,27,27,28,28,29,29,30,30,32,32,33,33,34,34,35,35,36,36,37,37,38,38,39,39,40,40,41,41,42,42,43,43,44,44,45,45,46,46,47,47,48,48,49,49,50,50,51,51,52,52,53,53,54,54,55,55,56,56,57,57,58,58],"right_children":[2,4,6,8,10,12,14,16,18,20,22,24,26,28,30,-1,-1,32,34,36,38,40,42,44,46,48,50,52,54,56,58,-1,60,62,64,66,68,70,72,74,76,78,80,82,84,86,88,90,92,94,96,98,100,102,104,106,108,110,112,-1,-1,-1,-1,-1,-1,-1,-1,-1,-1,-1,-1,-1,-1,-1,-1,-1,-1,-1,-1,-1,-1,-1,-1,-1,-1,-1,-1,-1,-1,-1,-1,-1,-1,-1,-1,-1,-1,-1,-1,-1,-1,-1,-1,-1,-1,-1,-1,-1,-1,-1,-1,-1,-1],"split_conditions":[2.3239437E-1,6.904883E-2,4.2488262E-1,1.173709E-2,4.347826E-1,2.624226E-1,5.2816904E-1,1.3359897E-2,2.2065727E-1,3.043478E-1,1.3615024E-1,3.043478E-1,3.4037557E-1,1.7391305E-1,7.089187E-2,-6.5335827E-3,-1.5355529E-3,4.3896714E-1,2.1902606E-1,1.4084508E-1,8.333333E-1,4.3848567E-2,2.8873238E-1,1.7840375E-1,2.347418E-2,1E0,9.5652175E-1,2.6995304E-1,3.3333334E-1,7.0187795E-1,5E-1,-5.506704E-3,6.57277E-1,4.7618747E-1,4.3896714E-1,8.2608694E-1,8.333333E-1,1.4553991E-1,1.8860602E-1,1.2563968E-1,1.9435737E-1,5.279975E-1,2.535211E-1,5E-1,2.7469864E-1,8.695652E-1,9.130435E-1,4.9061033E-1,2.1596244E-1,4.765258E-1,2.5089157E-1,1.2441315E-1,6.971927E-1,7.826087E-1,4.4366196E-1,4.2852536E-1,4.976526E-1,8.450704E-2,1E0,-4.774473E-3,-2.0676963E-4,-3.030501E-3,-1.9618768E-4,-4.2006825E-3,-1.2019342E-3,-3.8532899E-3,-4.697663E-3,-3.7995658E-3,-2.4380006E-3,-2.440368E-3,-7.617797E-4,-3.6744375E-3,-1.9805038E-3,-3.2574541E-3,1.0488704E-4,-1.136089E-3,2.8132407E-3,-8.158852E-5,2.7852927E-3,6.170586E-4,2.2256712E-3,-2.259093E-3,-4.972051E-4,-6.328928E-4,2.585949E-3,5.6056394E-3,2.7766425E-4,1.8683113E-3,4.559897E-3,3.8859968E-3,6.6978666E-3,-1.1671002E-3,3.3185089E-3,5.056733E-3,7.603147E-3,8.665411E-3,6.1729914E-3,1.0312573E-3,3.4740518E-3,5.162274E-3,9.134975E-3,7.5622946E-3,1.0698537E-2,5.9458977E-3,7.933651E-3,1.3602795E-2,1.9984976E-3,1.7234063E-2,4.5397542E-3,1.2926831E-2,1.0049592E-2,8.938825E-3,4.2780223E-3],"split_indices":[115,116,115,110,12,1,0,111,10,2,115,7,115,7,46,0,0,50,86,115,88,111,5,0,30,13,32,0,38,115,18,0,95,46,35,92,118,0,111,116,106,36,0,8,116,17,27,0,20,100,81,5,96,12,0,71,80,50,17,0,0,0,0,0,0,0,0,0,0,0,0,0,0,0,0,0,0,0,0,0,0,0,0,0,0,0,0,0,0,0,0,0,0,0,0,0,0,0,0,0,0,0,0,0,0,0,0,0,0,0,0,0,0],"split_type":[0,0,0,0,0,0,0,0,0,0,0,0,0,0,0,0,0,0,0,0,0,0,0,0,0,0,0,0,0,0,0,0,0,0,0,0,0,0,0,0,0,0,0,0,0,0,0,0,0,0,0,0,0,0,0,0,0,0,0,0,0,0,0,0,0,0,0,0,0,0,0,0,0,0,0,0,0,0,0,0,0,0,0,0,0,0,0,0,0,0,0,0,0,0,0,0,0,0,0,0,0,0,0,0,0,0,0,0,0,0,0,0,0],"sum_hessian":[7.584E3,4.19E3,3.394E3,2.843E3,1.347E3,1.906E3,1.488E3,2.248E3,5.95E2,8.46E2,5.01E2,4.75E2,1.431E3,9.48E2,5.4E2,2.247E3,1E0,5.37E2,5.8E1,6.63E2,1.83E2,1.59E2,3.42E2,2.54E2,2.21E2,5.54E2,8.77E2,2.13E2,7.35E2,2.09E2,3.31E2,4.01E2,1.36E2,3.1E1,2.7E1,4.45E2,2.18E2,1.28E2,5.5E1,1.8E1,1.41E2,1.5E2,1.92E2,1.68E2,8.6E1,2.9E1,1.92E2,4.34E2,1.2E2,7.49E2,1.28E2,8.6E1,1.27E2,3.25E2,4.1E2,1.4E2,6.9E1,1.48E2,1.83E2,1.35E2,1E0,2.6E1,5E0,2.6E1,1E0,1.38E2,3.07E2,1.08E2,1.1E2,5.5E1,7.3E1,4.6E1,9E0,1.7E1,1E0,1.38E2,3E0,1.46E2,4E0,5E1,1.42E2,8.3E1,8.5E1,3E1,5.6E1,2.4E1,5E0,1.76E2,1.6E1,3.95E2,3.9E1,3.5E1,8.5E1,6.69E2,8E1,7.3E1,5.5E1,5.4E1,3.2E1,1.11E2,1.6E1,1.28E2,1.97E2,2.14E2,1.96E2,1.38E2,2E0,6.8E1,1E0,7.7E1,7.1E1,1.67E2,1.6E1],"tree_param":{"num_deleted":"0","num_feature":"120","num_nodes":"113","size_leaf_vector":"1"}},{"base_weights":[1.8861539E-4,-9.250949E-2,1.1752864E-1,-1.1745675E-1,-3.6721505E-2,8.710201E-2,1.883769E-1,-1.234154E-1,-9.231741E-2,-6.663534E-2,8.620733E-3,2.486235E-2,1.0474455E-1,1.4910424E-1,2.362881E-1,-6.208863E-3,-1.0813379E-1,-6.559813E-2,-9.8852105E-2,-7.431309E-2,-3.942821E-2,-1.7741779E-2,2.3886539E-2,5.5302563E-4,5.44675E-2,8.302019E-2,1.2815778E-1,1.9174138E-1,1.2178432E-1,2.0575055E-1,2.894955E-1,-1.0944674E-1,-4.2696632E-2,-7.238687E-2,-4.216177E-2,-5.086351E-3,-8.75736E-2,-8.1607275E-2,-5.4580458E-2,-2.7536917E-2,-6.508839E-2,-3.295047E-2,-5.352162E-3,2.877808E-3,3.8162135E-2,-2.142658E-2,3.539859E-2,4.2541016E-2,9.6428394E-2,6.166975E-2,9.341425E-2,1.1646604E-1,1.7439286E-1,1.19147524E-1,2.037843E-1,4.471414E-2,1.3395298E-1,1.3521664E-1,2.174823E-1,3.183067E-1,2.4276546E-1,-2.9725935E-3,-5.5345176E-3,-2.712042E-3,-2.0160041E-4,-3.6829696E-3,-6.1015686E-4,-2.7181657E-3,-1.0681384E-3,-4.5012585E-3,-2.4216955E-3,-4.4124625E-3,-3.750729E-3,-3.4451638E-3,-2.062131E-3,-2.093208E-3,-5.7643856E-4,-3.7544693E-3,-2.5041813E-3,1.4257849E-3,-1.854836E-3,-7.674521E-4,7.825696E-4,2.6668265E-4,-3.1020446E-3,1.053167E-3,2.425052E-3,-1.9312724E-3,-1.4893162E-4,4.2822972E-4,3.0335009E-3,4.3685134E-3,1.8424671E-3,2.342397E-3,6.4786556E-3,3.591681E-3,1.2269794E-3,5.1778457E-3,3.7870754E-3,5.386147E-3,7.346754E-3,1.2382368E-2,7.967779E-3,4.3066265E-3,7.6511684E-3,1.0412749E-2,5.2808095E-3,-1.2885177E-3,2.8688312E-3,5.917606E-3,7.6101436E-3,1.2871757E-3,7.1299486E-3,1.2105467E-2,8.974287E-3,1.1206332E-2,1.65107E-2,8.238273E-3,1.3221509E-2],"categories":[],"categories_nodes":[],"categories_segments":[],"categories_sizes":[],"default_left":[0,0,0,0,0,0,0,0,0,0,0,0,0,0,0,0,0,0,0,0,0,0,0,0,0,0,0,0,0,0,0,0,0,0,0,0,0,0,0,0,0,0,0,0,0,0,0,0,0,0,0,0,0,0,0,0,0,0,0,0,0,0,0,0,0,0,0,0,0,0,0,0,0,0,0,0,0,0,0,0,0,0,0,0,0,0,0,0,0,0,0,0,0,0,0,0,0,0,0,0,0,0,0,0,0,0,0,0,0,0,0,0,0,0,0,0,0,0,0],"id":11,"left_children":[1,3,5,7,9,11,13,15,17,19,21,23,25,27,29,-1,31,33,35,37,39,41,43,45,47,49,51,53,55,57,59,61,63,65,67,-1,69,71,73,75,77,79,81,83,85,87,89,91,93,95,97,99,101,103,105,107,109,111,113,115,117,-1,-1,-1,-1,-1,-1,-1,-1,-1,-1,-1,-1,-1,-1,-1,-1,-1,-1,-1,-1,-1,-1,-1,-1,-1,-1,-1,-1,-1,-1,-1,-1,-1,-1,-1,-1,-1,-1,-1,-1,-1,-1,-1,-1,-1,-1,-1,-1,-1,-1,-1,-1,-1,-1,-1,-1,-1,-1],"loss_changes":[8.251443E1,5.8939514E0,7.2007866E0,4.2721176E-1,1.7787626E0,2.5712605E0,1.8557777E0,1.4091492E-2,9.216547E-2,1.6209269E-1,2.1050009E-1,3.734844E-1,9.181309E-1,6.231365E-1,6.732311E-1,0E0,5.6368113E-3,1.5085787E-2,5.7473183E-3,8.40652E-2,5.1911056E-2,3.6002178E-2,9.916107E-2,2.1980354E-1,1.1300218E-1,2.0506096E-1,4.5376968E-1,1.6368198E-1,3.1381416E-1,2.1056461E-1,1.4083481E-1,6.9379807E-4,1.5667104E-3,5.7640076E-3,5.9444867E-3,0E0,5.139053E-3,1.2953281E-2,2.9443264E-2,2.7498372E-2,4.4927E-3,2.297531E-2,2.2707023E-2,2.1853989E-2,3.3804625E-2,5.5726893E-2,7.4753165E-2,4.372868E-2,7.77396E-2,1.1673653E-1,1.06338024E-1,1.7144585E-1,1.5330696E-1,2.3727268E-2,5.831909E-2,4.431904E-2,6.5692425E-2,3.1888366E-2,1.8767357E-1,3.476906E-2,6.7961216E-2,0E0,0E0,0E0,0E0,0E0,0E0,0E0,0E0,0E0,0E0,0E0,0E0,0E0,0E0,0E0,0E0,0E0,0E0,0E0,0E0,0E0,0E0,0E0,0E0,0E0,0E0,0E0,0E0,0E0,0E0,0E0,0E0,0E0,0E0,0E0,0E0,0E0,0E0,0E0,0E0,0E0,0E0,0E0,0E0,0E0,0E0,0E0,0E0,0E0,0E0,0E0,0E0,0E0,0E0,0E0,0E0,0E0,0E0],"parents":[2147483647,0,0,1,1,2,2,3,3,4,4,5,5,6,6,7,7,8,8,9,9,10,10,11,11,12,12,13,13,14,14,16,16,17,17,18,18,19,19,20,20,21,21,22,22,23,23,24,24,25,25,26,26,27,27,28,28,29,29,30,30,31,31,32,32,33,33,34,34,36,36,37,37,38,38,39,39,40,40,41,41,42,42,43,43,44,44,45,45,46,46,47,47,48,48,49,49,50,50,51,51,52,52,53,53,54,54,55,55,56,56,57,57,58,58,59,59,60,60],"right_children":[2,4,6,8,10,12,14,16,18,20,22,24,26,28,30,-1,32,34,36,38,40,42,44,46,48,50,52,54,56,58,60,62,64,66,68,-1,70,72,74,76,78,80,82,84,86,88,90,92,94,96,98,100,102,104,106,108,110,112,114,116,118,-1,-1,-1,-1,-1,-1,-1,-1,-1,-1,-1,-1,-1,-1,-1,-1,-1,-1,-1,-1,-1,-1,-1,-1,-1,-1,-1,-1,-1,-1,-1,-1,-1,-1,-1,-1,-1,-1,-1,-1,-1,-1,-1,-1,-1,-1,-1,-1,-1,-1,-1,-1,-1,-1,-1,-1,-1,-1],"split_conditions":[2.3943663E-1,7.7285886E-2,4.765258E-1,2.832102E-2,4.347826E-1,2.624226E-1,8.695652E-1,1.173709E-2,7.826087E-1,3.043478E-1,1.5492958E-1,3.043478E-1,3.802817E-1,6.338028E-2,6.5258217E-1,-6.208863E-3,4.2488262E-1,3.6071396E-1,5.251011E-1,1.5962441E-1,8.333333E-1,2.6760563E-1,2.713437E-1,1.7840375E-1,3.1690142E-1,3.1455398E-1,9.5652175E-1,4.5070422E-1,1.4553991E-1,4.323901E-1,6.807512E-2,4.867294E-2,5.399061E-2,1.056338E-1,3.1768453E-1,-5.086351E-3,1.9761863E-1,6.338028E-2,8.333333E-1,1.6197184E-1,1.605998E-1,1.4084508E-1,4.6478873E-1,8.695652E-1,3.6150235E-1,5E-1,4.5646623E-1,1.6431924E-2,2.7469864E-1,1E0,8.333333E-1,4.71831E-1,1.6431925E-1,5.231742E-1,3.2629108E-1,4.201878E-1,4.4366196E-1,1.9483568E-1,6.666667E-1,2.0208138E-1,4.2723006E-1,-2.9725935E-3,-5.5345176E-3,-2.712042E-3,-2.0160041E-4,-3.6829696E-3,-6.1015686E-4,-2.7181657E-3,-1.0681384E-3,-4.5012585E-3,-2.4216955E-3,-4.4124625E-3,-3.750729E-3,-3.4451638E-3,-2.062131E-3,-2.093208E-3,-5.7643856E-4,-3.7544693E-3,-2.5041813E-3,1.4257849E-3,-1.854836E-3,-7.674521E-4,7.825696E-4,2.6668265E-4,-3.1020446E-3,1.053167E-3,2.425052E-3,-1.9312724E-3,-1.4893162E-4,4.2822972E-4,3.0335009E-3,4.3685134E-3,1.8424671E-3,2.342397E-3,6.4786556E-3,3.591681E-3,1.2269794E-3,5.1778457E-3,3.7870754E-3,5.386147E-3,7.346754E-3,1.2382368E-2,7.967779E-3,4.3066265E-3,7.6511684E-3,1.0412749E-2,5.2808095E-3,-1.2885177E-3,2.8688312E-3,5.917606E-3,7.6101436E-3,1.2871757E-3,7.1299486E-3,1.2105467E-2,8.974287E-3,1.1206332E-2,1.65107E-2,8.238273E-3,1.3221509E-2],"split_indices":[115,116,115,116,12,1,22,110,87,2,115,7,115,40,115,0,40,66,56,115,88,5,6,0,95,115,32,100,5,116,55,91,0,115,21,0,6,0,118,0,106,50,60,17,60,8,81,40,116,13,8,105,35,111,20,85,0,15,38,76,100,0,0,0,0,0,0,0,0,0,0,0,0,0,0,0,0,0,0,0,0,0,0,0,0,0,0,0,0,0,0,0,0,0,0,0,0,0,0,0,0,0,0,0,0,0,0,0,0,0,0,0,0,0,0,0,0,0,0],"split_type":[0,0,0,0,0,0,0,0,0,0,0,0,0,0,0,0,0,0,0,0,0,0,0,0,0,0,0,0,0,0,0,0,0,0,0,0,0,0,0,0,0,0,0,0,0,0,0,0,0,0,0,0,0,0,0,0,0,0,0,0,0,0,0,0,0,0,0,0,0,0,0,0,0,0,0,0,0,0,0,0,0,0,0,0,0,0,0,0,0,0,0,0,0,0,0,0,0,0,0,0,0,0,0,0,0,0,0,0,0,0,0,0,0,0,0,0,0,0,0],"sum_hessian":[7.584E3,4.237E3,3.347E3,2.927E3,1.31E3,2.343E3,1.004E3,2.363E3,5.64E2,7.89E2,5.21E2,5.18E2,1.825E3,5.54E2,4.5E2,2.244E3,1.19E2,1.13E2,4.51E2,6.14E2,1.75E2,1.91E2,3.3E2,2.85E2,2.33E2,9.49E2,8.76E2,2.14E2,3.4E2,2.89E2,1.61E2,1.16E2,3E0,8.6E1,2.7E1,3.53E2,9.8E1,4.46E2,1.68E2,1.21E2,5.4E1,8.5E1,1.06E2,1.34E2,1.96E2,1.75E2,1.1E2,1.83E2,5E1,3.13E2,6.36E2,7.02E2,1.74E2,3.2E1,1.82E2,4.7E1,2.93E2,4.3E1,2.46E2,9.6E1,6.5E1,4E0,1.12E2,2E0,1E0,8.4E1,2E0,1.6E1,1.1E1,9.1E1,7E0,2.16E2,2.3E2,7.9E1,8.9E1,6.3E1,5.8E1,3E1,2.4E1,5E0,8E1,7.2E1,3.4E1,1.3E2,4E0,7.5E1,1.21E2,9E1,8.5E1,5.4E1,5.6E1,1.9E1,1.64E2,2.1E1,2.9E1,2.45E2,6.8E1,4.01E2,2.35E2,5.49E2,1.53E2,2.7E1,1.47E2,1.8E1,1.4E1,1.73E2,9E0,7E0,4E1,1.62E2,1.31E2,3E0,4E1,1.46E2,1E2,1.3E1,8.3E1,1.6E1,4.9E1],"tree_param":{"num_deleted":"0","num_feature":"120","num_nodes":"119","size_leaf_vector":"1"}},{"base_weights":[1.9561368E-4,-8.875629E-2,1.1064943E-1,-1.1270185E-1,-3.857975E-2,8.0620825E-2,1.767725E-1,-1.1785466E-1,-9.26457E-2,-6.454495E-2,6.016429E-3,1.6732749E-2,9.532683E-2,2.221082E-1,1.4058854E-1,-5.895169E-3,-1.9656048E-4,-9.61027E-2,-5.951817E-2,-7.145426E-2,-3.7709616E-2,-2.318014E-2,1.953316E-2,-6.5762554E-3,5.7528216E-2,7.4685924E-2,1.269628E-1,1.8099126E-1,2.615871E-1,1.4684206E-1,6.52161E-2,-8.530581E-2,-9.976917E-2,-4.2752706E-2,-7.009518E-2,-7.874387E-2,-5.0995182E-2,-4.947484E-2,-2.0109296E-2,-2.5948219E-2,3.2310877E-2,1.7717222E-3,3.5420347E-2,-1.9895311E-2,2.2558233E-2,6.3369624E-2,-3.5845723E-2,5.3476207E-2,8.595653E-2,1.1539941E-1,1.7533523E-1,1.5990837E-1,2.2135414E-1,2.216806E-1,2.7988476E-1,1.13034174E-1,1.5594134E-1,-4.7004553E-3,8.9321785E-2,-4.28188E-3,-9.7138865E-4,-5.0353874E-3,-3.4826763E-3,-2.9110417E-3,-6.8642123E-4,-3.660787E-3,-1.4193531E-3,-4.0925946E-3,-3.296978E-3,-3.1995256E-3,-1.8793406E-3,-2.0458708E-3,-3.2163702E-3,-9.943314E-5,-1.6718348E-3,-1.9363118E-3,-6.156554E-4,-4.673673E-4,2.958764E-3,3.862118E-3,-8.022479E-5,8.04442E-3,1.6559825E-3,-5.409759E-4,-2.4651235E-3,1.3804844E-3,-1.2425032E-3,-2.0407762E-3,3.3251785E-3,-2.7018988E-3,-3.4229385E-4,3.1234063E-3,1.5145343E-3,4.483983E-3,1.5507395E-3,5.441237E-3,8.561279E-3,7.1081743E-3,1.0915028E-2,5.474929E-3,8.552084E-3,1.2097184E-2,8.583073E-3,4.2830594E-3,1.1389641E-2,1.4913875E-2,1.1890921E-2,4.368267E-3,6.4006136E-3,8.292327E-3,6.4950096E-3,-1.785272E-3,1.3488012E-3,3.1360015E-3,5.8495686E-3],"categories":[],"categories_nodes":[],"categories_segments":[],"categories_sizes":[],"default_left":[0,0,0,0,0,0,0,0,0,0,0,0,0,0,0,0,0,0,0,0,0,0,0,0,0,0,0,0,0,0,0,0,0,0,0,0,0,0,0,0,0,0,0,0,0,0,0,0,0,0,0,0,0,0,0,0,0,0,0,0,0,0,0,0,0,0,0,0,0,0,0,0,0,0,0,0,0,0,0,0,0,0,0,0,0,0,0,0,0,0,0,0,0,0,0,0,0,0,0,0,0,0,0,0,0,0,0,0,0,0,0,0,0,0,0],"id":12,"left_children":[1,3,5,7,9,11,13,15,17,19,21,23,25,27,29,-1,-1,31,33,35,37,39,41,43,45,47,49,51,53,55,57,59,61,63,65,67,69,71,73,75,77,79,81,83,85,87,89,91,93,95,97,99,101,103,105,107,109,111,113,-1,-1,-1,-1,-1,-1,-1,-1,-1,-1,-1,-1,-1,-1,-1,-1,-1,-1,-1,-1,-1,-1,-1,-1,-1,-1,-1,-1,-1,-1,-1,-1,-1,-1,-1,-1,-1,-1,-1,-1,-1,-1,-1,-1,-1,-1,-1,-1,-1,-1,-1,-1,-1,-1,-1,-1],"loss_changes":[7.4533035E1,5.0443764E0,6.7049637E0,2.8299713E-1,1.5740409E0,2.1865892E0,1.7010651E0,1.20716095E-2,6.1389923E-2,1.5657568E-1,1.9816849E-1,4.1592234E-1,1.2266369E0,7.1071625E-1,2.6851654E-1,0E0,0E0,1.2430191E-2,7.288292E-3,9.769702E-2,3.5863847E-2,2.526138E-2,9.672473E-2,1.08713046E-1,8.8995755E-2,2.6982832E-1,3.9704227E-1,1.6202784E-1,1.1028099E-1,1.4972305E-1,7.963303E-2,1.4181137E-3,3.9806366E-3,1.0424502E-2,2.3468137E-3,1.4540434E-2,2.9307634E-2,1.0840446E-2,1.7563075E-2,2.6006058E-2,9.506119E-3,4.1657202E-2,4.6919584E-2,5.071009E-2,2.1760419E-2,5.1690996E-2,4.905788E-3,8.1709266E-2,1.5022612E-1,2.0342445E-1,1.7134857E-1,6.8822384E-2,3.725028E-2,4.616618E-2,5.131054E-2,3.456819E-2,8.8339806E-2,1.3730865E-2,1.8424392E-2,0E0,0E0,0E0,0E0,0E0,0E0,0E0,0E0,0E0,0E0,0E0,0E0,0E0,0E0,0E0,0E0,0E0,0E0,0E0,0E0,0E0,0E0,0E0,0E0,0E0,0E0,0E0,0E0,0E0,0E0,0E0,0E0,0E0,0E0,0E0,0E0,0E0,0E0,0E0,0E0,0E0,0E0,0E0,0E0,0E0,0E0,0E0,0E0,0E0,0E0,0E0,0E0,0E0,0E0,0E0,0E0],"parents":[2147483647,0,0,1,1,2,2,3,3,4,4,5,5,6,6,7,7,8,8,9,9,10,10,11,11,12,12,13,13,14,14,17,17,18,18,19,19,20,20,21,21,22,22,23,23,24,24,25,25,26,26,27,27,28,28,29,29,30,30,31,31,32,32,33,33,34,34,35,35,36,36,37,37,38,38,39,39,40,40,41,41,42,42,43,43,44,44,45,45,46,46,47,47,48,48,49,49,50,50,51,51,52,52,53,53,54,54,55,55,56,56,57,57,58,58],"right_children":[2,4,6,8,10,12,14,16,18,20,22,24,26,28,30,-1,-1,32,34,36,38,40,42,44,46,48,50,52,54,56,58,60,62,64,66,68,70,72,74,76,78,80,82,84,86,88,90,92,94,96,98,100,102,104,106,108,110,112,114,-1,-1,-1,-1,-1,-1,-1,-1,-1,-1,-1,-1,-1,-1,-1,-1,-1,-1,-1,-1,-1,-1,-1,-1,-1,-1,-1,-1,-1,-1,-1,-1,-1,-1,-1,-1,-1,-1,-1,-1,-1,-1,-1,-1,-1,-1,-1,-1,-1,-1,-1,-1,-1,-1,-1,-1],"split_conditions":[2.1557525E-1,6.904883E-2,4.6713614E-1,1.3359897E-2,3.9130434E-1,3.9130434E-1,1.0075421E-1,6.3615024E-1,2.2065727E-1,3.043478E-1,1.3615024E-1,2.4413146E-1,4.084507E-1,5.2537566E-1,1E0,-5.895169E-3,-1.9656048E-4,8.695652E-1,5E-1,1.5962441E-1,1.6197184E-1,1.1502347E-1,2.8638497E-1,3.6619717E-1,1E0,3.1455398E-1,5.633803E-1,6.150235E-1,6.2441313E-1,3.685446E-1,3.1455398E-1,2.2608998E-1,1.520708E-1,1.0798122E-1,5.4532886E-1,1.3255218E-1,8.333333E-1,8.333333E-1,5E-1,4.336395E-1,2.0422535E-1,2.550199E-2,1.8779343E-2,5.586854E-1,3.051643E-1,1.03286386E-1,3.5915494E-1,8.695652E-1,9.5652175E-1,9.5652175E-1,1.8947852E-1,3.8497654E-1,4.976526E-1,4.5774648E-1,5.399061E-2,4.0140846E-1,2.4624257E-1,2.4624257E-1,4.294044E-1,-4.28188E-3,-9.7138865E-4,-5.0353874E-3,-3.4826763E-3,-2.9110417E-3,-6.8642123E-4,-3.660787E-3,-1.4193531E-3,-4.0925946E-3,-3.296978E-3,-3.1995256E-3,-1.8793406E-3,-2.0458708E-3,-3.2163702E-3,-9.943314E-5,-1.6718348E-3,-1.9363118E-3,-6.156554E-4,-4.673673E-4,2.958764E-3,3.862118E-3,-8.022479E-5,8.04442E-3,1.6559825E-3,-5.409759E-4,-2.4651235E-3,1.3804844E-3,-1.2425032E-3,-2.0407762E-3,3.3251785E-3,-2.7018988E-3,-3.4229385E-4,3.1234063E-3,1.5145343E-3,4.483983E-3,1.5507395E-3,5.441237E-3,8.561279E-3,7.1081743E-3,1.0915028E-2,5.474929E-3,8.552084E-3,1.2097184E-2,8.583073E-3,4.2830594E-3,1.1389641E-2,1.4913875E-2,1.1890921E-2,4.368267E-3,6.4006136E-3,8.292327E-3,6.4950096E-3,-1.785272E-3,1.3488012E-3,3.1360015E-3,5.8495686E-3],"split_indices":[116,116,0,116,7,2,46,90,10,2,115,0,115,116,28,0,0,92,93,115,0,105,5,115,108,115,115,0,0,105,15,6,111,0,71,116,118,88,3,41,65,31,35,95,35,5,60,42,17,32,16,115,110,115,50,115,51,51,6,0,0,0,0,0,0,0,0,0,0,0,0,0,0,0,0,0,0,0,0,0,0,0,0,0,0,0,0,0,0,0,0,0,0,0,0,0,0,0,0,0,0,0,0,0,0,0,0,0,0,0,0,0,0,0,0],"split_type":[0,0,0,0,0,0,0,0,0,0,0,0,0,0,0,0,0,0,0,0,0,0,0,0,0,0,0,0,0,0,0,0,0,0,0,0,0,0,0,0,0,0,0,0,0,0,0,0,0,0,0,0,0,0,0,0,0,0,0,0,0,0,0,0,0,0,0,0,0,0,0,0,0,0,0,0,0,0,0,0,0,0,0,0,0,0,0,0,0,0,0,0,0,0,0,0,0,0,0,0,0,0,0,0,0,0,0,0,0,0,0,0,0,0,0],"sum_hessian":[7.584E3,4.201E3,3.383E3,2.843E3,1.358E3,2.328E3,1.055E3,2.258E3,5.85E2,8.58E2,5E2,4.36E2,1.892E3,4.66E2,5.89E2,2.257E3,1E0,5.28E2,5.7E1,6.81E2,1.77E2,1.58E2,3.42E2,2.78E2,1.58E2,1.147E3,7.45E2,2.31E2,2.35E2,5.43E2,4.6E1,1.4E2,3.88E2,2.4E1,3.3E1,5E2,1.81E2,1.05E2,7.2E1,1.51E2,7E0,1.62E2,1.8E2,1.91E2,8.7E1,1.49E2,9E0,4E2,7.47E2,6.04E2,1.41E2,1.55E2,7.6E1,7.8E1,1.57E2,1.18E2,4.25E2,1.2E1,3.4E1,1.39E2,1E0,3.74E2,1.4E1,1.5E1,9E0,3E1,3E0,3.98E2,1.02E2,9E1,9.1E1,6.9E1,3.6E1,3.1E1,4.1E1,7.7E1,7.4E1,3E0,4E0,6E0,1.56E2,2E0,1.78E2,1.47E2,4.4E1,7.9E1,8E0,4E0,1.45E2,5E0,4E0,2.87E2,1.13E2,6.99E2,4.8E1,5.43E2,6.1E1,8.2E1,5.9E1,3E1,1.25E2,5.1E1,2.5E1,4E0,7.4E1,1.05E2,5.2E1,4.6E1,7.2E1,3.04E2,1.21E2,6E0,6E0,1.9E1,1.5E1],"tree_param":{"num_deleted":"0","num_feature":"120","num_nodes":"115","size_leaf_vector":"1"}},{"base_weights":[2.0095917E-4,-8.355865E-2,1.0622635E-1,-1.02969244E-1,-2.526634E-2,8.156381E-2,1.7826794E-1,-1.10990465E-1,-7.702434E-2,-5.5509757E-2,1.12543395E-2,2.4168486E-2,9.709851E-2,1.4941768E-1,2.331843E-1,-5.60397E-3,-9.694853E-2,-8.534979E-2,-5.0389685E-2,-6.2619776E-2,-3.137774E-2,-4.3887817E-3,2.6091907E-2,7.944985E-4,5.227194E-2,7.4721806E-2,1.18203595E-1,8.544254E-2,1.6358761E-1,2.5471917E-1,1.6124913E-1,-1.01061225E-1,-8.130374E-2,-8.744352E-2,-7.115047E-2,-6.6575006E-2,-3.815705E-2,-6.868316E-2,-4.4090107E-2,-6.4605875E-3,-4.268274E-2,-1.7280914E-2,6.901085E-3,6.9999876E-3,4.1879278E-2,-2.7191088E-2,2.3734268E-2,4.001589E-2,1.0362346E-1,8.589238E-2,5.7262164E-2,1.06838584E-1,1.6252708E-1,4.502903E-2,1.2655798E-1,1.4959744E-1,2.0017721E-1,2.7550894E-1,2.2380759E-1,9.474045E-2,1.8244945E-1,-5.090549E-3,-1.6442722E-3,-4.112867E-3,-1.0313088E-3,-4.4634067E-3,-3.7836456E-3,-3.5867267E-3,-6.398205E-4,-3.522193E-3,-1.9874198E-3,-2.0976395E-3,1.6048698E-3,-3.6169991E-3,-2.517529E-3,-2.6622415E-3,-9.626655E-4,-1.227631E-3,5.962554E-4,-1.5381486E-3,-2.7775157E-3,-1.1346153E-3,5.819001E-4,7.9986465E-4,-6.173541E-4,-1.4298473E-4,1.2890714E-3,8.950085E-5,2.2536048E-3,-2.288861E-3,-2.0623908E-4,-1.7815258E-4,1.9779415E-3,1.734759E-3,5.632778E-3,2.707727E-3,6.6745407E-3,3.1836906E-3,4.8096795E-3,5.997597E-4,3.5022148E-3,5.6291767E-3,3.2811505E-3,1.0245714E-2,6.9179307E-3,-2.181868E-3,2.555017E-3,4.8157945E-3,8.102228E-3,5.9823706E-3,8.071355E-3,1.2131454E-2,7.959741E-3,1.1468487E-2,1.5045104E-2,1.1276401E-2,1.5522182E-3,3.0631095E-3,7.169001E-3,9.23523E-3,1.6859062E-3],"categories":[],"categories_nodes":[],"categories_segments":[],"categories_sizes":[],"default_left":[0,0,0,0,0,0,0,0,0,0,0,0,0,0,0,0,0,0,0,0,0,0,0,0,0,0,0,0,0,0,0,0,0,0,0,0,0,0,0,0,0,0,0,0,0,0,0,0,0,0,0,0,0,0,0,0,0,0,0,0,0,0,0,0,0,0,0,0,0,0,0,0,0,0,0,0,0,0,0,0,0,0,0,0,0,0,0,0,0,0,0,0,0,0,0,0,0,0,0,0,0,0,0,0,0,0,0,0,0,0,0,0,0,0,0,0,0,0,0,0,0],"id":13,"left_children":[1,3,5,7,9,11,13,15,17,19,21,23,25,27,29,-1,31,33,35,37,39,41,43,45,47,49,51,53,55,57,59,61,63,65,67,69,71,73,75,77,79,81,83,85,87,89,91,93,95,97,99,101,103,105,107,109,111,113,115,117,119,-1,-1,-1,-1,-1,-1,-1,-1,-1,-1,-1,-1,-1,-1,-1,-1,-1,-1,-1,-1,-1,-1,-1,-1,-1,-1,-1,-1,-1,-1,-1,-1,-1,-1,-1,-1,-1,-1,-1,-1,-1,-1,-1,-1,-1,-1,-1,-1,-1,-1,-1,-1,-1,-1,-1,-1,-1,-1,-1,-1],"loss_changes":[6.736857E1,4.7926464E0,5.9339485E0,6.530304E-1,1.1714056E0,2.223135E0,1.3166103E0,2.6229858E-2,1.6289568E-1,9.755111E-2,1.11757435E-1,3.5008067E-1,9.1869164E-1,4.9548912E-1,4.1126728E-1,0E0,3.4936666E-3,1.0813713E-2,3.3493757E-2,4.719329E-2,3.747049E-2,3.432361E-2,7.415542E-2,1.8810438E-1,1.4816016E-1,1.8153429E-1,4.909048E-1,1.6710955E-1,2.0501328E-1,8.164978E-2,8.141494E-2,3.8080215E-3,7.914305E-4,3.8757324E-3,1.7746091E-3,5.191654E-3,2.9613346E-2,1.8815756E-2,2.4668127E-2,1.4596079E-2,1.2401924E-2,1.7478172E-2,2.225827E-2,2.0998957E-2,1.719904E-2,5.640135E-2,6.968779E-2,7.2230875E-2,6.073615E-2,1.2685299E-1,2.1671653E-1,1.8345833E-1,1.8063307E-1,3.129919E-2,3.9125204E-2,9.973049E-2,1.7710686E-1,8.211994E-2,2.4503231E-2,2.215521E-2,1.1213541E-2,0E0,0E0,0E0,0E0,0E0,0E0,0E0,0E0,0E0,0E0,0E0,0E0,0E0,0E0,0E0,0E0,0E0,0E0,0E0,0E0,0E0,0E0,0E0,0E0,0E0,0E0,0E0,0E0,0E0,0E0,0E0,0E0,0E0,0E0,0E0,0E0,0E0,0E0,0E0,0E0,0E0,0E0,0E0,0E0,0E0,0E0,0E0,0E0,0E0,0E0,0E0,0E0,0E0,0E0,0E0,0E0,0E0,0E0,0E0,0E0],"parents":[2147483647,0,0,1,1,2,2,3,3,4,4,5,5,6,6,7,7,8,8,9,9,10,10,11,11,12,12,13,13,14,14,16,16,17,17,18,18,19,19,20,20,21,21,22,22,23,23,24,24,25,25,26,26,27,27,28,28,29,29,30,30,31,31,32,32,33,33,34,34,35,35,36,36,37,37,38,38,39,39,40,40,41,41,42,42,43,43,44,44,45,45,46,46,47,47,48,48,49,49,50,50,51,51,52,52,53,53,54,54,55,55,56,56,57,57,58,58,59,59,60,60],"right_children":[2,4,6,8,10,12,14,16,18,20,22,24,26,28,30,-1,32,34,36,38,40,42,44,46,48,50,52,54,56,58,60,62,64,66,68,70,72,74,76,78,80,82,84,86,88,90,92,94,96,98,100,102,104,106,108,110,112,114,116,118,120,-1,-1,-1,-1,-1,-1,-1,-1,-1,-1,-1,-1,-1,-1,-1,-1,-1,-1,-1,-1,-1,-1,-1,-1,-1,-1,-1,-1,-1,-1,-1,-1,-1,-1,-1,-1,-1,-1,-1,-1,-1,-1,-1,-1,-1,-1,-1,-1,-1,-1,-1,-1,-1,-1,-1,-1,-1,-1,-1,-1],"split_conditions":[2.3943663E-1,1.0075421E-1,4.976526E-1,3.514203E-2,4.347826E-1,2.599347E-1,5.606789E-1,1.173709E-2,3.478261E-1,3.043478E-1,1.8075117E-1,3.043478E-1,3.802817E-1,1.7391305E-1,8.450704E-2,-5.60397E-3,6.086956E-1,2.793427E-1,1.12676054E-1,9.5652175E-1,5E-1,4.1079813E-1,1.960806E-1,1.5258215E-1,4.0375587E-1,8.333333E-1,9.5652175E-1,2.7975613E-1,9.130435E-1,6.807512E-2,4.2488262E-1,1E0,4.1079813E-1,1.713615E-1,7.256554E-1,4.8122066E-1,1.23949125E-1,1.9014084E-1,2.7230048E-1,5.8685444E-2,8.333333E-1,4.4611382E-1,1.12676054E-1,9.130435E-1,4.867294E-2,6.666667E-1,3.0266348E-1,9.5652175E-1,2.7469864E-1,3.5211268E-1,3.043478E-1,1E0,3.3333334E-1,1.8075117E-1,5.416275E-1,4.0610328E-1,5.399061E-2,6.713615E-1,5.7372725E-1,5.231742E-1,1E0,-5.090549E-3,-1.6442722E-3,-4.112867E-3,-1.0313088E-3,-4.4634067E-3,-3.7836456E-3,-3.5867267E-3,-6.398205E-4,-3.522193E-3,-1.9874198E-3,-2.0976395E-3,1.6048698E-3,-3.6169991E-3,-2.517529E-3,-2.6622415E-3,-9.626655E-4,-1.227631E-3,5.962554E-4,-1.5381486E-3,-2.7775157E-3,-1.1346153E-3,5.819001E-4,7.9986465E-4,-6.173541E-4,-1.4298473E-4,1.2890714E-3,8.950085E-5,2.2536048E-3,-2.288861E-3,-2.0623908E-4,-1.7815258E-4,1.9779415E-3,1.734759E-3,5.632778E-3,2.707727E-3,6.6745407E-3,3.1836906E-3,4.8096795E-3,5.997597E-4,3.5022148E-3,5.6291767E-3,3.2811505E-3,1.0245714E-2,6.9179307E-3,-2.181868E-3,2.555017E-3,4.8157945E-3,8.102228E-3,5.9823706E-3,8.071355E-3,1.2131454E-2,7.959741E-3,1.1468487E-2,1.5045104E-2,1.1276401E-2,1.5522182E-3,3.0631095E-3,7.169001E-3,9.23523E-3,1.6859062E-3],"split_indices":[115,116,115,116,12,1,116,110,7,2,115,7,115,7,50,0,42,15,0,97,3,65,66,0,100,8,32,1,27,55,0,118,30,110,51,65,111,115,110,110,88,16,95,37,81,118,116,32,116,0,12,58,38,55,96,95,50,115,86,111,33,0,0,0,0,0,0,0,0,0,0,0,0,0,0,0,0,0,0,0,0,0,0,0,0,0,0,0,0,0,0,0,0,0,0,0,0,0,0,0,0,0,0,0,0,0,0,0,0,0,0,0,0,0,0,0,0,0,0,0,0],"split_type":[0,0,0,0,0,0,0,0,0,0,0,0,0,0,0,0,0,0,0,0,0,0,0,0,0,0,0,0,0,0,0,0,0,0,0,0,0,0,0,0,0,0,0,0,0,0,0,0,0,0,0,0,0,0,0,0,0,0,0,0,0,0,0,0,0,0,0,0,0,0,0,0,0,0,0,0,0,0,0,0,0,0,0,0,0,0,0,0,0,0,0,0,0,0,0,0,0,0,0,0,0,0,0,0,0,0,0,0,0,0,0,0,0,0,0,0,0,0,0,0,0],"sum_hessian":[7.584E3,4.237E3,3.347E3,3.178E3,1.059E3,2.495E3,8.52E2,2.425E3,7.53E2,5.79E2,4.8E2,5.32E2,1.963E3,5.61E2,2.91E2,2.244E3,1.81E2,5.72E2,1.81E2,4.46E2,1.33E2,2.34E2,2.46E2,2.91E2,2.41E2,9.55E2,1.008E3,1.03E2,4.58E2,2.22E2,6.9E1,1.39E2,4.2E1,4.94E2,7.8E1,7.6E1,1.05E2,3.34E2,1.12E2,4.2E1,9.1E1,1.09E2,1.25E2,1.12E2,1.34E2,1.31E2,1.6E2,1.96E2,4.5E1,5.8E2,3.75E2,8.05E2,2.03E2,5.3E1,5E1,3.35E2,1.23E2,1.28E2,9.4E1,1.8E1,5.1E1,1.37E2,2E0,4.1E1,1E0,4.22E2,7.2E1,7.7E1,1E0,6.5E1,1.1E1,1E2,5E0,2.76E2,5.8E1,8.1E1,3.1E1,2.1E1,2.1E1,4.9E1,4.2E1,9.2E1,1.7E1,8.5E1,4E1,7.4E1,3.8E1,1E1,1.24E2,7.2E1,5.9E1,5.9E1,1.01E2,1.84E2,1.2E1,1.8E1,2.7E1,1.86E2,3.94E2,8.3E1,2.92E2,7.05E2,1E2,7.1E1,1.32E2,3E0,5E1,2.9E1,2.1E1,9.8E1,2.37E2,5.8E1,6.5E1,4.9E1,7.9E1,9.3E1,1E0,1.2E1,6E0,5E1,1E0],"tree_param":{"num_deleted":"0","num_feature":"120","num_nodes":"121","size_leaf_vector":"1"}},{"base_weights":[2.0602021E-4,-7.9391934E-2,1.00963466E-1,-9.735837E-2,-2.2540804E-2,7.46648E-2,1.6220038E-1,-1.0544815E-1,-7.2549336E-2,-5.1594004E-2,1.0710204E-2,2.113277E-2,8.9839205E-2,1.2815395E-1,2.0373823E-1,-5.323896E-3,-9.216637E-2,-8.088161E-2,-4.631955E-2,-5.8376882E-2,-2.8628755E-2,-1.1421948E-2,2.0440064E-2,3.0559313E-4,4.64979E-2,7.124199E-2,1.0988198E-1,1.6786128E-1,1.0513407E-1,1.8367985E-1,2.6650834E-1,-3.3595308E-3,-9.433241E-2,-4.368774E-3,-7.654435E-2,-5.539828E-2,-2.6097119E-2,-6.417547E-2,-4.190954E-2,-1.7717157E-2,-5.1645767E-2,-2.5887033E-2,-2.394841E-3,2.0643582E-3,3.29288E-2,-1.8965172E-2,3.0858288E-2,9.327748E-2,3.8078986E-2,4.1879624E-2,7.722527E-2,9.977066E-2,1.4987272E-1,9.875734E-2,1.775087E-1,2.9025018E-2,1.13925904E-1,1.5715107E-1,2.1233681E-1,1.5766356E-2,2.2740752E-1,-4.733118E-3,-1.005526E-3,-3.9331526E-3,-3.3004605E-3,-2.8912153E-3,-1.7346432E-4,-1.87878E-3,2.0244616E-4,-3.5508971E-3,-2.650691E-3,-2.5355585E-3,-9.160366E-4,-1.4140819E-3,-1.9947754E-4,-2.1020812E-3,-3.242495E-3,-9.2620746E-4,-3.3874412E-3,-3.0326538E-4,2.530716E-3,2.2063838E-4,-2.9938417E-3,8.723051E-4,2.1151926E-3,-1.7327316E-3,-1.0715049E-4,3.227566E-4,2.693191E-3,3.2364863E-3,7.483948E-3,1.6888289E-3,5.133431E-3,-1.1313715E-3,2.3810545E-3,4.30834E-3,3.1196582E-3,4.5801657E-3,6.414596E-3,1.08745275E-2,6.8033747E-3,9.062737E-5,5.120814E-3,1.0061869E-2,7.828458E-3,-2.0711657E-3,2.047713E-3,4.885017E-3,6.4919605E-3,6.186468E-3,8.642388E-3,1.143224E-2,7.18688E-3,5.492368E-3,1.1675794E-2],"categories":[],"categories_nodes":[],"categories_segments":[],"categories_sizes":[],"default_left":[0,0,0,0,0,0,0,0,0,0,0,0,0,0,0,0,0,0,0,0,0,0,0,0,0,0,0,0,0,0,0,0,0,0,0,0,0,0,0,0,0,0,0,0,0,0,0,0,0,0,0,0,0,0,0,0,0,0,0,0,0,0,0,0,0,0,0,0,0,0,0,0,0,0,0,0,0,0,0,0,0,0,0,0,0,0,0,0,0,0,0,0,0,0,0,0,0,0,0,0,0,0,0,0,0,0,0,0,0,0,0,0,0,0,0],"id":14,"left_children":[1,3,5,7,9,11,13,15,17,19,21,23,25,27,29,-1,31,33,35,37,39,41,43,45,47,49,51,53,55,57,59,-1,61,-1,63,65,67,69,71,73,75,77,79,81,83,85,87,89,91,93,95,97,99,101,103,105,107,109,111,-1,113,-1,-1,-1,-1,-1,-1,-1,-1,-1,-1,-1,-1,-1,-1,-1,-1,-1,-1,-1,-1,-1,-1,-1,-1,-1,-1,-1,-1,-1,-1,-1,-1,-1,-1,-1,-1,-1,-1,-1,-1,-1,-1,-1,-1,-1,-1,-1,-1,-1,-1,-1,-1,-1,-1],"loss_changes":[6.084037E1,4.3265476E0,5.379673E0,6.386051E-1,9.849556E-1,1.9021711E0,1.3951778E0,2.3366928E-2,1.7000389E-1,8.306801E-2,1.0273662E-1,2.741652E-1,6.7279434E-1,4.8965454E-1,5.1888466E-1,0E0,3.5078526E-3,1.0267496E-2,3.417152E-2,3.731954E-2,3.0730173E-2,1.9002376E-2,7.5892985E-2,1.6897455E-1,8.8605046E-2,1.6366482E-1,3.3967018E-1,1.17138386E-1,2.3356819E-1,2.289114E-1,1.3254023E-1,0E0,2.137065E-3,0E0,3.04389E-3,1.6554832E-2,2.1606047E-2,1.9757986E-2,2.2324368E-2,1.2504347E-2,2.3461804E-3,1.6005524E-2,1.8012708E-2,1.9901762E-2,2.7856722E-2,4.6377532E-2,6.1968543E-2,4.6666086E-2,5.2110374E-2,6.1446965E-2,9.91292E-2,1.5200758E-1,1.3376546E-1,9.391606E-3,5.5941105E-2,3.363147E-2,6.916475E-2,7.4617386E-2,1.4948511E-1,0E0,1.9589186E-2,0E0,0E0,0E0,0E0,0E0,0E0,0E0,0E0,0E0,0E0,0E0,0E0,0E0,0E0,0E0,0E0,0E0,0E0,0E0,0E0,0E0,0E0,0E0,0E0,0E0,0E0,0E0,0E0,0E0,0E0,0E0,0E0,0E0,0E0,0E0,0E0,0E0,0E0,0E0,0E0,0E0,0E0,0E0,0E0,0E0,0E0,0E0,0E0,0E0,0E0,0E0,0E0,0E0,0E0],"parents":[2147483647,0,0,1,1,2,2,3,3,4,4,5,5,6,6,7,7,8,8,9,9,10,10,11,11,12,12,13,13,14,14,16,16,17,17,18,18,19,19,20,20,21,21,22,22,23,23,24,24,25,25,26,26,27,27,28,28,29,29,30,30,32,32,34,34,35,35,36,36,37,37,38,38,39,39,40,40,41,41,42,42,43,43,44,44,45,45,46,46,47,47,48,48,49,49,50,50,51,51,52,52,53,53,54,54,55,55,56,56,57,57,58,58,60,60],"right_children":[2,4,6,8,10,12,14,16,18,20,22,24,26,28,30,-1,32,34,36,38,40,42,44,46,48,50,52,54,56,58,60,-1,62,-1,64,66,68,70,72,74,76,78,80,82,84,86,88,90,92,94,96,98,100,102,104,106,108,110,112,-1,114,-1,-1,-1,-1,-1,-1,-1,-1,-1,-1,-1,-1,-1,-1,-1,-1,-1,-1,-1,-1,-1,-1,-1,-1,-1,-1,-1,-1,-1,-1,-1,-1,-1,-1,-1,-1,-1,-1,-1,-1,-1,-1,-1,-1,-1,-1,-1,-1,-1,-1,-1,-1,-1,-1],"split_conditions":[2.3943663E-1,1.0407648E-1,4.765258E-1,3.514203E-2,4.347826E-1,2.624226E-1,8.695652E-1,1.173709E-2,3.478261E-1,3.043478E-1,1.5492958E-1,3.043478E-1,3.802817E-1,